a -0.06602411065250635 -0.019043257692828774 -8.026587311178446E-4 0.09313129307702184 -0.03856378665659577 0.09973969898419455 0.015892841038294137 -0.0606906246393919 -0.07739025144837797 0.24733225675299764
aah 0.3671239912509918 0.3606310486793518 0.17891983687877655 -0.2960965633392334 -0.05779978632926941 0.29186299443244934 -0.13243213295936584 0.6191708445549011 0.40419983863830566 0.016549360007047653
ab -0.04797054082155228 0.06358746439218521 -0.17049583792686462 -0.6503801941871643 -0.07118687033653259 0.17381569743156433 -0.19294866919517517 -0.608893632888794 -0.40528053045272827 0.2740473747253418
aback -0.6763992309570312 -0.22352376580238342 0.45999813079833984 -0.1358485370874405 0.15681368112564087 0.0350845642387867 -0.16451923549175262 -0.13611814379692078 -0.024921489879488945 -0.44900575280189514
abacus 0.243357315659523 -0.2865881323814392 0.2421046793460846 0.34324726462364197 -0.07342208176851273 0.3146263360977173 -0.053030826151371 0.392606645822525 0.4517101049423218 -0.12150731682777405
abandon -0.40695515275001526 -0.7218376398086548 -0.09951653331518173 -0.42218178510665894 -0.6120403409004211 -0.6951239705085754 -0.6146185994148254 -0.37832143902778625 -1.0812116861343384 0.07657371461391449
abandoned -0.45478326082229614 -0.8077324032783508 0.12002819031476974 -0.045738283544778824 -0.45271676778793335 -0.8197986483573914 0.30029335618019104 -0.9179837703704834 -0.5879691243171692 -0.0038093747571110725
abandoning -0.08365365117788315 -0.47459301352500916 0.2601138949394226 -0.08481884747743607 -0.5704495310783386 -0.19376972317695618 0.16659186780452728 -0.47260159254074097 -0.3197982907295227 -0.0791112408041954
abandonment 0.021195637062191963 -0.6329026222229004 0.6886278390884399 0.12874071300029755 0.18361955881118774 0.06882039457559586 0.2986906170845032 -0.5926883220672607 -0.9433558583259583 0.24180185794830322
abandons 0.014538067393004894 -0.02089441567659378 -0.014169630594551563 0.004055871162563562 0.009086241014301777 0.02623417042195797 0.03570135310292244 0.01325374934822321 -0.028057659044861794 0.03642147034406662
abashed -0.36965033411979675 -0.13732439279556274 0.31367728114128113 0.17906594276428223 0.10513944923877716 -0.9379144310951233 -0.6288195252418518 -0.03738756850361824 -0.17519088089466095 -1.0185258388519287
abate 0.03344506770372391 -0.15158481895923615 -0.01741054281592369 0.014015969820320606 -0.004959976766258478 0.029724374413490295 0.04117868095636368 -0.03569423407316208 -0.052782803773880005 0.00831666961312294
abbe -0.6263848543167114 -0.02644025906920433 0.6787917613983154 0.12069416791200638 -0.6966591477394104 0.843186616897583 0.3084171712398529 0.9400759935379028 0.10482075810432434 -0.5237066149711609
abbreviated -0.08328170329332352 0.3201470375061035 -0.06183284521102905 0.0038734767585992813 0.1938251107931137 0.048163846135139465 0.2712574303150177 -0.06960241496562958 0.16932567954063416 -0.14458590745925903
abbreviations 0.17437627911567688 0.14463163912296295 0.25802096724510193 0.10580147802829742 -0.2879074215888977 0.5693204402923584 -0.07145881652832031 0.15694531798362732 0.542534351348877 -0.049886297434568405
abc 0.02836218848824501 -0.1613166332244873 0.03818207606673241 -0.11145845800638199 -0.021741095930337906 0.4212976098060608 -0.3271894156932831 -0.16771845519542694 -0.03525976836681366 0.8787110447883606
abdicate 0.03355782479047775 0.029903020709753036 0.04571390897035599 -0.010222213342785835 0.007216224446892738 0.00921506155282259 -0.023646274581551552 0.052073996514081955 9.608019609004259E-4 0.0027040475979447365
abdomen 0.318969190120697 -0.518885612487793 0.08715453743934631 0.09851769357919693 -0.061230748891830444 0.08982384949922562 0.020164571702480316 -0.10889564454555511 0.05923468992114067 -0.2818981111049652
abdomens 0.1433374434709549 -0.43675944209098816 0.08562038093805313 0.2127922773361206 -0.27993929386138916 0.119391068816185 -0.006570122670382261 0.2671235501766205 0.26541149616241455 0.02943771332502365
abduction -0.5303398370742798 0.08417900651693344 0.6274024844169617 0.707042396068573 -0.17359846830368042 0.10956788808107376 -0.04871173948049545 0.28351253271102905 -0.3385290205478668 0.79013991355896
abductors -0.04355466365814209 -0.026735330000519753 0.0442044734954834 -0.010881257243454456 0.01728307083249092 0.027629565447568893 -0.03911421447992325 5.763888475485146E-4 -0.007051503751426935 -0.0030895709060132504
abhorrence -0.049191541969776154 -0.0578714944422245 0.02664516121149063 0.032783474773168564 0.02248908206820488 0.03203889727592468 -0.013400542549788952 0.02050396054983139 0.008259410038590431 -0.04862561076879501
abhorrent -0.06762900203466415 0.0778762549161911 -0.2104189544916153 0.026936233043670654 -0.11653080582618713 -0.37854790687561035 -0.39239218831062317 -0.14964038133621216 -0.20262423157691956 0.08933281898498535
abide -0.6585046052932739 0.10108954459428787 -0.5173217058181763 0.29639899730682373 0.09466104209423065 -1.0297027826309204 -0.6893637180328369 -0.10079754889011383 -0.4441569149494171 -0.19198745489120483
abides -0.46310102939605713 0.27765753865242004 -0.03217050060629845 -6.456812843680382E-5 0.1090025082230568 -0.13069550693035126 -0.5410193204879761 -0.47720038890838623 -0.23639421164989471 0.004191580228507519
abideth 0.12507115304470062 0.01083881314843893 -0.28653278946876526 -0.19385749101638794 0.18914082646369934 -0.04731891676783562 -0.23776915669441223 0.023376407101750374 -0.33380430936813354 -0.13378851115703583
abidin 0.05772259086370468 0.060628581792116165 0.045206744223833084 -0.6237523555755615 -0.3034006953239441 -0.31226274371147156 0.652632474899292 1.0867807865142822 -0.19051530957221985 -0.12201109528541565
abiding -0.5235913395881653 0.1996239870786667 0.24275647103786469 0.1277911216020584 0.21081505715847015 -0.10994351655244827 -0.2544861435890198 -0.6644641757011414 -0.029010191559791565 0.17627312242984772
abidings 0.07001597434282303 0.24247004091739655 0.003450691467151046 0.42242270708084106 0.17748990654945374 -0.3887692093849182 -0.0918586254119873 -0.1943000853061676 0.008049454540014267 -0.16347819566726685
ability -0.10759911686182022 0.024628794752061367 0.24547694623470306 -0.22478188574314117 -0.19403958693146706 0.21484194695949554 -0.08500243350863457 0.21138253062963486 -0.319155216217041 0.09027078468352556
abject -0.30877116322517395 -0.08985088765621185 -0.020760739222168922 0.09323906898498535 -0.09793101251125336 -0.26406988501548767 -0.18623434007167816 -0.09755148738622665 0.04565741866827011 0.2632032334804535
ablaze -0.00754742743447423 -0.07067820057272911 0.05427706256159581 0.017883475869894028 -0.06323787104338408 -0.05253463424742222 -0.013595279306173325 -0.02100075362250209 0.027049286291003227 0.0687551386654377
able -0.30454249680042267 -0.21177615225315094 -0.06693527102470398 0.009165838360786438 -0.31786703411489725 -0.2780934311449528 -0.10902679339051247 -0.31018440425395966 -0.6568538397550583 -0.5171361416578293
abnormal -0.37621554732322693 -0.022088175639510155 0.04577546566724777 0.1150350570678711 0.042408086359500885 -0.12895391881465912 -0.14931388199329376 -0.1846490353345871 -0.14302493631839752 -0.15374183654785156
abnormally -0.33913454413414 0.08772283047437668 0.30704057216644287 0.10689982771873474 -0.24384881556034088 -0.07854045182466507 0.4367363154888153 0.6806448101997375 0.422434538602829 0.13853834569454193
aboard -0.06214646250009537 0.05691368877887726 -0.29506367444992065 -0.3698013424873352 0.5700536370277405 0.02253583073616028 -0.24959169328212738 -0.2408389151096344 -0.8891220688819885 -0.29737937450408936
abode -0.10429303348064423 -0.09020484983921051 0.04801902547478676 0.2933793365955353 -0.005170834716409445 -0.032218087464571 -0.14135777950286865 -0.45734304189682007 -0.21899700164794922 0.032986871898174286
abodes -0.0550561361014843 -0.038823846727609634 -0.04206281155347824 -0.0779641717672348 -0.1387382298707962 -0.021557115018367767 -0.11354629695415497 -0.11985999345779419 -0.21815775334835052 0.0956907570362091
abolishing -0.27924543619155884 -0.09762341529130936 0.10809509456157684 -0.16764073073863983 0.04569979012012482 0.15742862224578857 -0.028430478647351265 -0.0016735229874029756 0.2663609981536865 0.17975138127803802
abolition -0.16356688737869263 -0.2211049348115921 0.2711021602153778 0.22589267790317535 0.1628561168909073 0.3609039783477783 0.03996521234512329 -0.11416306346654892 -0.3552524447441101 0.17040422558784485
abominable 0.24993510358035564 0.05385766178369522 -0.37128858268260956 -0.13446179032325745 0.03487708419561386 0.10254902765154839 -0.3748048394918442 0.27012062072753906 -0.2656676024198532 -0.10691448301076889
abominably -0.05868392996490002 -0.06363290175795555 -0.02554415911436081 0.00744627183303237 -0.04394065588712692 -0.08619023486971855 0.003249749541282654 -0.09702568873763084 -0.1318049058318138 -0.01898613339290023
abounding -0.003640697803348303 -0.2133846879005432 0.11735255271196365 -0.06707000732421875 -0.2347298413515091 0.09179937839508057 0.12094821035861969 -0.22092530131340027 -0.1816980093717575 0.20752866566181183
about -0.11678267642855644 -0.2758398689329624 -0.2563606705516577 0.4058730418328196 -0.2652757689356804 0.013143137097358704 -0.21816859766840935 0.20690865814685822 -0.11356035619974136 -0.1330440640449524
above -0.03645574115216732 -0.37949083372950554 -0.002998746931552887 0.016436614096164703 -0.2666381560266018 -0.5527559593319893 0.25306469947099686 -0.21623624116182327 -0.14580312371253967 -0.1585542969405651
aboveboard 0.15384170413017273 -0.07682963460683823 -0.5945829749107361 -0.12133419513702393 -0.4812227189540863 0.5556377172470093 -1.3392717838287354 -0.18842539191246033 -0.6055015921592712 0.38087400794029236
abramovna 0.012590495869517326 0.07677759230136871 -0.011571064591407776 0.0381203219294548 -0.05064696818590164 0.037637170404195786 -0.029683558270335197 0.004003269597887993 0.014795033261179924 -0.03424808755517006
abreast 0.7362902164459229 -0.9960298538208008 0.09481825679540634 0.41941308975219727 -0.17472685873508453 -0.15833671391010284 -0.30989155173301697 -0.5521880388259888 1.1641618013381958 0.5027216672897339
abroad -0.2659952789545059 -0.0019102692604064941 0.3037846088409424 0.247376867569983 -0.350319754332304 -0.1923978142440319 -0.5739346332848072 -0.10376733401790261 -0.4126258897013031 0.0665287533774972
abrupt -0.05727788060903549 -0.08072475343942642 0.3771274983882904 0.4478616416454315 -0.036704082041978836 0.12454112619161606 0.2710409164428711 1.247795581817627 0.4189262092113495 0.14999237656593323
abruptly 0.2622753083705902 0.03171149641275406 -0.08693227055482566 0.2721911482512951 -0.011557742953300476 0.46054305136203766 0.22798199951648712 0.5203487873077393 -0.018918253481388092 -0.5840795785188675
absence -0.11281413026154041 -0.15227699163369834 0.013310119393281639 -0.026864971965551376 -0.008046574890613556 0.11973931826651096 0.07747678691521287 -0.18942906893789768 -0.329888466745615 0.025534904096275568
absent -0.06685944646596909 -0.10170847177505493 -0.026943301782011986 -0.008470066590234637 -0.002569645643234253 -0.0029776273295283318 -0.0881966520100832 -0.015732955187559128 -0.10288032796233892 -0.10081010148860514
absentees -0.1901874840259552 -0.2435302734375 0.22979484498500824 0.16632302105426788 -0.2724583148956299 -0.04597817361354828 0.02889546938240528 -0.29694733023643494 0.012707424350082874 0.19625768065452576
absently -0.045278653502464294 0.3435845524072647 -0.011824078857898712 0.20793865621089935 -0.1019120141863823 0.2764526605606079 0.28623268753290176 0.6630708575248718 0.031091537326574326 -0.22260002046823502
absentmindedly 0.23909501731395721 -0.16389790177345276 0.11535513401031494 0.19556252658367157 -0.1783176213502884 0.1427762508392334 0.11782337725162506 0.48158538341522217 -0.012238576076924801 -0.49449893832206726
absolute -0.42440371215343475 -0.18841154873371124 -0.2722473293542862 -0.06649873498827219 -0.07151516526937485 0.06720754504203796 -0.01855163276195526 0.18158182129263878 -0.03719441592693329 0.21822699904441833
absolutely -0.6345179080963135 -0.24407074600458145 -0.5308185815811157 -0.3072034418582916 -0.5385473072528839 -0.45046862959861755 -0.1901557594537735 -0.3907384853810072 -0.018882781267166138 -0.20293918251991272
absolved -0.039495259523391724 -0.15127292275428772 -0.04540758207440376 0.09658800065517426 -0.14209751784801483 0.09124898910522461 0.020000241696834564 -0.15913979709148407 -0.06304699927568436 -0.12173990160226822
absorb -0.05547744408249855 -0.009188944473862648 0.030793454498052597 0.055088937282562256 -0.033414121717214584 -0.042176056653261185 0.022438958287239075 0.048999518156051636 -0.03681279346346855 0.008286932483315468
absorbed -0.4599074721336365 -0.3622410483658314 0.13927866518497467 0.0930742509663105 -0.10070136189460754 -0.13735698908567429 0.5728792622685432 -0.2209051176905632 0.03730437159538269 -0.08348786178976297
absorbing -0.2341650128364563 -0.15837498009204865 0.17754626274108887 -0.5998836159706116 0.014461187645792961 -0.10777808725833893 0.05968811735510826 -0.20750778913497925 -0.04269333556294441 0.26715636253356934
absorption -0.09127748012542725 -0.5752264261245728 0.3047651946544647 -0.15771949291229248 0.17493946850299835 0.5368897914886475 0.0034706394653767347 0.034732636064291 -0.08892641961574554 0.1761370152235031
abstain -0.261015385389328 -0.12163158506155014 -0.06440761685371399 0.06341133266687393 0.023972038179636 -0.12074294686317444 -0.2559758424758911 -0.03716408833861351 -0.2734009325504303 0.12330974638462067
abstained -4.872774297837168E-6 -0.010058194398880005 -0.01623469777405262 -0.026516396552324295 0.026632608845829964 0.02741725742816925 -0.028716977685689926 0.01877395436167717 0.05011498183012009 -0.02783964015543461
abstaining -0.49047327041625977 0.00651981495320797 0.2866137623786926 -0.0661267563700676 0.20103298127651215 0.47050008177757263 0.18023118376731873 0.0903821587562561 -0.03040582872927189 -0.046741802245378494
abstemious 0.03540845215320587 0.3810475468635559 0.20093214511871338 -0.24466586112976074 0.32672518491744995 0.11457965523004532 0.14968261122703552 0.49533236026763916 -0.4589601159095764 0.2811026871204376
abstemiousness -0.2616487145423889 -0.06744181364774704 -0.25934797525405884 -0.09582789242267609 0.09272001683712006 -0.10212577879428864 -0.24218502640724182 0.06238110363483429 -0.35102930665016174 0.13184674084186554
abstention 0.031427573412656784 -0.07847977429628372 0.10516683012247086 -0.05012790858745575 -0.03607683628797531 0.09382611513137817 0.08131424337625504 0.06381145864725113 -0.07193464785814285 -0.01221636962145567
abstract -0.3623276948928833 -0.7685781717300415 -0.1991557776927948 -0.16723765432834625 0.21041452884674072 0.8182114958763123 0.0738525316119194 -0.1193586066365242 -0.41234835982322693 0.7930009365081787
abstraction 0.00345417158678174 -0.05189632624387741 0.037713926285505295 -9.732918115332723E-4 -0.06986507773399353 0.08815999329090118 0.028419308364391327 0.027772102504968643 -0.1305665522813797 0.014253855682909489
absurd -0.2846120223402977 0.03228694945573807 -0.4829176962375641 0.14166470989584923 0.18800660222768784 0.1793096587061882 -0.023591533303260803 -0.15837620198726654 -0.37774495780467987 0.19804441602900624
absurdity 0.009656339883804321 -0.3954288065433502 0.2784305810928345 0.12662342190742493 0.23695163428783417 -0.0037917441222816706 0.24819284677505493 -0.07925418019294739 -0.3393561840057373 0.11681394279003143
absurdly -0.16311603784561157 -0.16770263016223907 0.2513526380062103 0.15091761946678162 -0.020902831107378006 0.17719995975494385 -0.20242691040039062 0.028762729838490486 -0.19958916306495667 0.08962184935808182
absurdum 0.13948827981948853 0.04772036522626877 0.004055766388773918 0.05802568793296814 0.012214056216180325 -0.008683093823492527 0.04386937990784645 -0.07755623757839203 -0.10638175159692764 -0.036805279552936554
abundance -0.07370882481336594 -0.11935369670391083 0.19055193662643433 -0.008738622069358826 -0.06033359095454216 0.08803306519985199 0.11506415903568268 -0.19649703800678253 -0.16688944399356842 0.16377335786819458
abundant -0.1492728814482689 0.13740047812461853 0.1354551576077938 -0.021298786159604788 -0.010876690968871117 -0.03281645476818085 0.16426295042037964 -0.2891094759106636 -0.008201874792575836 -0.03646050253883004
abundantly 0.09164711087942123 -0.11433057487010956 -0.01622116193175316 0.20445825159549713 0.17959168553352356 0.1279088407754898 0.08630143105983734 0.027843276038765907 0.06041176989674568 0.12936250865459442
abuse 0.237528458237648 -0.13602441363036633 0.29463478922843933 0.14135316386818886 -0.06119541823863983 0.13448590226471424 0.0338489287532866 0.12608905136585236 0.018902686424553394 -0.10266284458339214
abused -0.17634490132331848 -0.27229660749435425 0.3638894557952881 -0.2705879509449005 -0.2995675206184387 -0.23332394659519196 -0.3832150399684906 0.024217797443270683 -0.02880312316119671 0.030299268662929535
abuses -0.1531500667333603 -0.37659186124801636 0.5146932005882263 -0.11147566139698029 -0.013918609358370304 0.7858365774154663 -0.06445574760437012 0.14268538355827332 -0.27203449606895447 0.22028063237667084
abusing -0.09661871939897537 -0.1386110931634903 0.2054431289434433 0.2054634392261505 -0.43842700123786926 0.1799984574317932 -0.1875675916671753 0.3673771619796753 0.21559932827949524 -0.1450931280851364
abyss -0.4749879539012909 -0.4370438754558563 -0.37931033968925476 -0.5766251683235168 -0.11277008056640625 0.17855389416217804 -0.8177823424339294 0.37227556109428406 -0.040986329317092896 -0.1578202247619629
academy 0.45562130212783813 -0.049316104501485825 -0.07054129987955093 -0.37165549397468567 -0.3016676604747772 0.02884676307439804 -0.41206589341163635 0.25177380442619324 -0.37157031893730164 1.166568636894226
accelerate 0.43032488226890564 -0.20124663412570953 0.3906725347042084 -0.15925061702728271 -0.057257138192653656 0.049848515540361404 0.06405787914991379 -0.22555877268314362 -0.06902077794075012 0.12244633585214615
accent -0.35664008744060993 -0.2576841488480568 0.17892400221899152 0.28593963757157326 -0.1190121928229928 0.15215196087956429 -0.1001228503882885 0.5599492802284658 0.11375530995428562 -0.07719612494111061
accents -0.123843714594841 -0.019504643976688385 -0.027206934988498688 -0.4486091136932373 -0.43806275725364685 0.16075561940670013 -0.11087407171726227 0.2516351342201233 0.31292593479156494 -0.2624960243701935
accentuated -0.33391010761260986 0.09972982108592987 0.2811439335346222 0.530422568321228 0.3532252311706543 0.17700767517089844 -0.16584081947803497 0.5483390688896179 0.3898320198059082 -0.4494894742965698
accentuating -0.5372999310493469 -0.4173493981361389 -0.015377610921859741 -0.09268156439065933 0.4240589141845703 0.20993128418922424 -0.2618712782859802 0.13078619539737701 0.4098924994468689 -0.07143159210681915
accept -0.05959622957743704 -0.07058220729231834 -0.14604266313835979 -0.11793641000986099 -0.27274048142135143 -0.015798913314938545 -0.3544862363487482 -0.1224079221719876 -0.3532160986214876 -0.03488688915967941
acceptance -0.02522195875644684 -0.10648740828037262 0.035332296043634415 0.022879868745803833 0.16565044224262238 -0.08400002121925354 0.04836084693670273 -0.15059080719947815 -0.11691271513700485 0.1494976431131363
accepted -0.11574382707476616 -0.2052234299480915 0.09284650534391403 0.06516429409384727 -0.15983261913061142 -0.2907831110060215 -0.09509286098182201 -0.34170618653297424 -0.46998608857393265 -0.25146589800715446
accepting -0.007127196062356234 -0.3646658696234226 0.3215012662112713 -0.0134933996014297 -0.14024371281266212 -0.16309555806219578 0.10747191868722439 -0.10123197734355927 -0.3996336106210947 -0.07322263717651367
accepts -0.45169150829315186 -0.22932440042495728 -0.20911121368408203 0.38973572850227356 0.0648282840847969 0.11651280522346497 0.2910394072532654 -0.227228581905365 -0.37932008504867554 -0.20697660744190216
access 0.17910484969615936 0.17381524480879307 -0.003010639105923474 0.11359301023185253 -0.0633958363905549 0.07646631030365825 0.002685702405869961 0.07471367996186018 0.003719529864611104 -0.015750575810670853
accessed -0.022071020677685738 0.012542246840894222 -0.04361124336719513 0.05450136959552765 -0.02307305485010147 0.029572298750281334 -0.027610892429947853 -0.019003676250576973 -0.021490970626473427 0.0476158931851387
accessible -0.026602214202284813 0.01548207551240921 -0.0024302111996803433 0.00933094136416912 -0.024874936672858894 -0.00684491079300642 0.02819586731493473 -0.0073980544693768024 -0.02925327606499195 0.04276018310338259
accident -0.35388535261154175 -0.03386354446411133 0.04484464228153229 -0.14205828309059143 0.35920165479183197 -0.592170387506485 -0.06281329691410065 -0.17393378168344498 -0.28765641897916794 0.13751506805419922
accidental -0.2750920057296753 -0.16833019256591797 -0.13554798066616058 0.09950346499681473 -0.3976667821407318 0.2713985741138458 -0.37315425276756287 -0.1402459740638733 -0.3507441580295563 -0.6015927791595459
accidentally -0.2777518928050995 -0.24854007363319397 -0.14582428336143494 0.29585906863212585 0.05522698909044266 -0.20343616604804993 0.031187748536467552 0.3240586221218109 -0.3416142165660858 -0.4131636321544647
accidently 0.04461539909243584 -0.015357280150055885 0.001988351345062256 0.044296324253082275 0.048639584332704544 0.043472014367580414 0.042833805084228516 -0.01880207099020481 0.020289015024900436 -0.038530170917510986
accidents -0.11975282430648804 -0.22658158838748932 0.20275679230690002 0.026302214711904526 -0.06770426034927368 0.03959125652909279 0.05226181820034981 -0.12280625849962234 0.007312094327062368 -0.10957890748977661
acclaimed -0.020462743937969208 -0.013173905201256275 -0.04461081326007843 -0.02895098738372326 0.02647821232676506 -0.018199335783720016 -0.030262408778071404 -0.07482106983661652 -0.03402159363031387 0.04538726806640625
acclamations -0.48703762888908386 -0.4008990228176117 -0.0318215936422348 -0.06539080291986465 0.1756238490343094 0.5401644706726074 0.1802184283733368 0.23714156448841095 0.10020419210195541 -0.057226065546274185
accommodate -0.25584685802459717 -0.4823194742202759 0.6806078553199768 -0.06773580610752106 -0.28534048795700073 -0.7649058103561401 -0.648692786693573 0.19208957254886627 0.049088526517152786 -0.16818663477897644
accommodated -0.026626496110111475 -0.09477833285927773 0.1244981586933136 0.04940793290734291 -0.12418204173445702 -0.053823765367269516 0.01736556738615036 -0.15617136284708977 0.05782536789774895 -0.01203170302323997
accommodation -0.2349214404821396 -0.3326815366744995 0.25872546434402466 -0.206233948469162 -0.4602464437484741 0.16719292104244232 -0.3858957588672638 -0.06518971174955368 0.5879285931587219 -0.15471011400222778
accompanied 0.2068995402660221 -0.28400785475969315 0.5145087949931622 0.1938738375902176 -0.1114414744079113 -0.2844072470907122 0.1294175647199154 -0.31894758343696594 -0.1760970912873745 0.08615878224372864
accompanies 0.019372262060642242 0.04096624255180359 0.010102376341819763 -1.5908293426036835E-4 0.009163349866867065 0.28573937714099884 -0.039402587339282036 0.030680428259074688 -0.01463305950164795 0.01946615194901824
accompaniment -0.0392460972070694 -0.30423154681921005 0.2538008261471987 -0.05453185457736254 -0.15751202730461955 0.22969374060630798 0.020649805665016174 0.014586661010980606 -0.027447566390037537 0.23297281749546528
accompany -0.26585710048675537 -0.14424680918455124 0.37745609506964684 -0.06456896103918552 -0.5509423017501831 -0.03055451065301895 -0.08263659477233887 0.2222191197797656 -0.31740301894024014 0.0446510910987854
accompanying -0.9661254286766052 0.2344714254140854 1.3330035209655762 0.03938256949186325 -0.47612228989601135 0.06821036338806152 0.08832728862762451 -0.5909293293952942 -0.37757739424705505 -0.3031793236732483
accomplish 0.0015194937586784363 -0.02870822884142399 -0.1791574079543352 -0.28412289172410965 0.09108351450413465 0.05077292211353779 0.05381580162793398 -0.05699130840366706 -0.4488825462758541 0.04886684753000736
accomplished -0.505732923746109 -0.1794649362564087 -0.03342394530773163 0.016306908801198006 -0.0016318950802087784 -0.11808009818196297 -0.1480170339345932 -0.04502842016518116 -0.22086940705776215 -0.12635395675897598
accomplishing -0.07853757590055466 -0.13223500549793243 -0.0021298169158399105 0.04121017828583717 -0.10249868780374527 -0.012176256626844406 -0.08249685168266296 0.058834273368120193 0.04906194284558296 0.056682366877794266
accomplishment -0.1453978270292282 -0.3135869801044464 0.13884098827838898 0.28378716111183167 -0.13334687054157257 0.06024283170700073 -0.14362795650959015 -0.07881629467010498 -0.1331678330898285 0.42111697793006897
accomplishments -0.021279914304614067 0.007923637516796589 0.002743575256317854 -0.022275324910879135 -0.0637412965297699 0.019969630986452103 0.0369134284555912 -0.02758830599486828 0.03766101226210594 -0.02897387370467186
accord -0.08558538928627968 -0.04243536293506622 0.05049155652523041 -0.07430945336818695 -0.3612673133611679 0.04574228450655937 0.21001641266047955 -0.2841774970293045 -0.4350007623434067 0.19346140138804913
accordance 0.07737349905073643 -0.10081907920539379 0.3661796017549932 -0.004051510244607925 0.0719552063383162 0.11119426973164082 0.11210471368394792 -0.024859820492565632 0.01575566123938188 0.1174335521645844
accorded -0.17152604460716248 0.36584699153900146 0.0928250402212143 0.14587724208831787 -0.24193301796913147 0.18636135756969452 0.5674017071723938 0.2590459883213043 -0.016253206878900528 -0.1262754499912262
according 0.017340876162052155 -0.047154501080513 0.30348174273967743 -0.4405881464481354 -0.4499041587114334 -0.005485072731971741 -0.15945353172719479 -0.3770460784435272 -0.25119003653526306 0.3561757355928421
accordingly -0.18472740799188614 -0.32370419800281525 0.3342268019914627 -0.10114413499832153 -0.10807516798377037 0.11513926833868027 0.09246326866559684 0.16643585544079542 -0.07985185086727142 -0.2079819142818451
accoucheur 0.09277831763029099 -0.050138913094997406 -0.09709765762090683 -0.08862949907779694 0.24492406845092773 0.012947971932590008 0.01658874750137329 0.031002655625343323 0.02719595842063427 0.7506214380264282
account -0.006762102246284485 -0.12433099746704102 -0.1389663852751255 -0.08086284063756466 -0.3786822259426117 -0.09283618628978729 -0.014450864866375923 -0.08970274031162262 -0.5329209715127945 0.15935922414064407
accountable -0.46160072088241577 -0.01070460770279169 -0.10645371675491333 0.07866325229406357 -0.2222299873828888 -0.15120865404605865 -0.19355854392051697 -0.20918110013008118 -0.08679444342851639 0.10565968602895737
accountant 0.4441620111465454 -0.35458678007125854 0.01132302824407816 -0.4163423478603363 1.1170556545257568 -0.5878369808197021 0.06058904528617859 1.0182687044143677 0.8896700143814087 -0.4559766352176666
accounted -0.34738361835479736 -0.3454260528087616 -0.14274083077907562 0.20214049518108368 -0.15587976574897766 -0.0875626802444458 0.10219942778348923 -0.3638492822647095 -0.38528069853782654 -0.3684915602207184
accounts -0.6172141432762146 -0.2056395262479782 0.33385545015335083 0.10589256137609482 0.17847613990306854 0.1186106875538826 -0.08104026317596436 -0.5582077503204346 -0.16191162168979645 -0.27926725149154663
accouterments 0.06155501306056976 -0.1565895676612854 0.09779418259859085 -0.012691971845924854 -0.05750490352511406 0.0788772702217102 0.0068359822034835815 -0.007588014006614685 -0.014377429150044918 -0.02355600893497467
accrue -0.16474388539791107 -0.23057234287261963 0.2924581468105316 -0.33029910922050476 -0.5037328004837036 0.3548501133918762 -0.23102617263793945 0.013297893106937408 0.029497604817152023 -0.09527447819709778
accumulated -0.07476061582565308 -0.13602082431316376 0.19698108732700348 -0.2461957037448883 0.02896159514784813 -0.07676438987255096 0.25300702452659607 -0.06835699826478958 0.24331410229206085 -0.26016223430633545
accuracy -0.07237017585430294 -0.3726029768586159 0.17640085890889168 -0.11343373358249664 -0.0021493183448910713 0.0516734104603529 -0.10254447162151337 -0.13018008694052696 -0.22950835525989532 0.15524287894368172
accurate -0.23168005049228668 -0.0013238717801868916 0.7697482705116272 -0.6562768816947937 -0.045118920505046844 -0.06389904022216797 -0.3534999489784241 -0.2931673526763916 -0.03004693239927292 -0.009605677798390388
accurately -0.36469659209251404 -0.03715479001402855 -0.3636890649795532 -0.037778519093990326 -0.03736134618520737 -0.15311162173748016 -0.2554706633090973 -0.07736917585134506 -0.36874720454216003 0.1620437055826187
accusations 0.00793794821947813 -0.08106539398431778 -0.0977194607257843 -0.012756584212183952 -0.1869470775127411 -0.16774119436740875 -0.1455051302909851 -0.07064156234264374 -0.16607625782489777 0.02374257706105709
accuse 0.030601726844906807 -0.06497040390968323 -0.05313634127378464 -0.017764387652277946 0.05409625917673111 -0.09220246970653534 -0.048340171575546265 -0.00969154853373766 -0.05815069377422333 -0.016001740470528603
accused -0.015522721223533154 -0.18982822075486183 0.03636300563812256 0.1230047345161438 -0.14813408628106117 -0.08305691927671432 -0.006693074246868491 -0.17487922683358192 -0.39746805280447006 0.12583508528769016
accusers -0.07647061347961426 -0.010735047981142998 -0.041767287999391556 -0.04648323729634285 -0.086590476334095 0.06768939644098282 -0.027722211554646492 -0.010298717767000198 -0.025130383670330048 -0.006981241516768932
accuses 0.02900772914290428 -0.16160848736763 -0.06453865766525269 -0.07188510149717331 -0.09248735755681992 0.10360024124383926 -0.019381524994969368 0.11341850459575653 -0.2946627736091614 -0.10999368876218796
accusing -0.11356749013066292 -0.14075683057308197 -0.07988863158971071 -0.20169155299663544 0.023110799491405487 0.01923561841249466 0.15655495785176754 -1.2678280472755432E-4 -0.033710358664393425 0.038493262603878975
accustom -0.03066417947411537 -0.25679707527160645 0.581863284111023 0.14240458607673645 -0.18651433289051056 0.29059240221977234 -0.09865865111351013 -0.44898033142089844 -0.4147682189941406 0.031014934182167053
accustomed -0.2490343451499939 0.11386298760771751 -0.16988382139243186 -0.02296720165759325 -0.1223837360739708 -0.17049845680594444 -0.006305137649178505 -0.45939144492149353 -0.5470432937145233 -0.1272135227918625
ace -0.08974219858646393 -0.9651792645454407 0.46110793948173523 -0.5155259370803833 0.16076037287712097 0.5976463556289673 -0.3883398473262787 -0.29661402106285095 0.22879736125469208 -0.3238789141178131
ache 0.08268791623413563 -0.30864299833774567 0.09454568475484848 -0.3127280957996845 0.1871359497308731 -0.16392345260828733 0.001718592713586986 0.13093553483486176 8.964985609054565E-4 -0.17956701293587685
ached -0.010509151965379715 -0.14280307292938232 -0.011251566931605339 -0.20563478767871857 -0.1565549373626709 -0.47502490878105164 0.2347135692834854 0.131725013256073 -0.09209887683391571 -0.2816016674041748
aches 0.24587103724479675 -0.3208870589733124 -0.22218404710292816 0.4097084403038025 -0.5522897839546204 0.5602135062217712 -0.052578628063201904 0.29700911045074463 -0.4418680965900421 0.13217729330062866
achieve 0.21551144123077393 -0.35134994983673096 -0.049724116921424866 0.1636245846748352 -0.06670006364583969 -0.20009095966815948 -0.007489682640880346 0.027962859719991684 -0.5471373796463013 -0.054096389561891556
achieved -0.41165003180503845 -0.06334347277879715 0.8837264180183411 -0.39177289605140686 0.2804725468158722 0.2968544661998749 0.14270658791065216 -0.42662328481674194 -0.1472056359052658 0.4199140965938568
achievement -0.11560787260532379 -0.4156392514705658 -0.14737094938755035 -0.13644109666347504 -0.4959709048271179 0.3302710950374603 -0.3789486885070801 0.24202321469783783 -0.25721877813339233 0.8596270680427551
achievements -0.24675019457936287 -0.08040191605687141 0.06174754351377487 -0.19448257237672806 0.06248241104185581 0.07593591511249542 -0.38378550112247467 -0.05074409022927284 -0.12608854845166206 0.09402526821941137
achilles 0.18272434175014496 -0.7843275964260101 0.033229827880859375 -0.09023919701576233 0.011860094964504242 -0.26480379491113126 0.3444073498249054 -0.10850318521261215 -0.23647060245275497 0.15480385348200798
aching 0.1262407824397087 -0.2887963354587555 0.028534001670777798 -0.2292848527431488 -0.184458889067173 -0.24271900951862335 -0.11547400243580341 0.11289465427398682 -0.023119630990549922 0.34670544299297035
achtung 0.19822321832180023 0.010499841533601284 -0.07653896510601044 0.10119539499282837 -0.10249553620815277 0.11427101492881775 0.2436250001192093 -0.04081554710865021 -0.13433021306991577 0.3732910752296448
acid 6.636825855821371E-4 -0.3290156126022339 0.11714769899845123 0.2110583484172821 -0.05791082978248596 0.054670073091983795 0.09748193621635437 -0.11017362028360367 0.24449759721755981 -0.04317031055688858
acknowledge -0.16187776625156403 -0.3482614830136299 0.11360807158052921 -0.38041073083877563 -0.21396999061107635 0.03709476999938488 -0.02013007178902626 0.15903268568217754 -0.2342885211110115 -0.044917989522218704
acknowledged -0.20625251531600952 -1.2541241645812988 -0.3341940939426422 0.38833487033843994 0.04268105700612068 -0.6022183299064636 -0.6294485926628113 0.23168602585792542 0.026629634201526642 -0.005460347048938274
acknowledging -0.5240325331687927 0.28294116258621216 -0.06378296762704849 0.11448158323764801 -0.4200894832611084 0.015051927417516708 -0.15671563148498535 0.9658953547477722 0.5302419662475586 0.05445561930537224
acknowledgment 0.10721192508935928 -0.17980422265827656 0.05603337101638317 -0.21359609439969063 0.02566112019121647 -0.03761536628007889 0.4129299744963646 -0.2161829061806202 0.030201890505850315 -0.0918109156191349
acme -0.34046670794487 -0.4111936390399933 -0.008260008879005909 0.09378892928361893 0.02846626192331314 0.3970416188240051 0.1574672907590866 -0.06663079559803009 0.5546603798866272 0.22917979955673218
acquaint 0.03375742584466934 0.14548787474632263 0.024000398814678192 -0.00569633673876524 0.08895363658666611 -0.233650341629982 -0.14735832810401917 -0.33673614263534546 0.05053495615720749 -0.15911994874477386
acquaintance -0.16177382320165634 0.19667018204927444 0.45698312297463417 0.3018300533294678 -0.026949914172291756 0.008871127385646105 -0.013105124235153198 -0.19817005470395088 -0.2251545414328575 -0.028995320200920105
acquaintances -0.9063573479652405 -0.16045241057872772 0.634584367275238 -0.08003214001655579 -0.20589753985404968 0.02173992432653904 0.28394702076911926 -0.19405467808246613 0.04080824926495552 -0.09425041079521179
acquainted -0.3578051030635834 0.01215868815779686 -0.10286711528897285 0.18505656719207764 -0.04233938455581665 -0.07177211903035641 -0.292351171374321 0.11741838604211807 0.16921710968017578 0.071224644780159
acquire -0.1577516347169876 -0.12354513257741928 -0.06176317110657692 -0.025766633450984955 -0.08353209495544434 0.15409614145755768 0.1422375589609146 -0.05514472723007202 -0.21045459806919098 0.13635778427124023
acquired -0.7347095608711243 -0.5067815780639648 0.02216685749590397 0.023555096238851547 -0.22994586825370789 -0.06471329182386398 0.19160300493240356 0.1696569323539734 -0.6096468567848206 -0.30296534299850464
acquires -0.4558924734592438 -0.2920694351196289 -0.17196913063526154 -0.29430779814720154 -0.20887647569179535 -0.23164203763008118 0.04750391095876694 -0.2979367971420288 0.004640165716409683 0.3061932623386383
acquiring -0.2737756371498108 -0.06880649924278259 -0.05918291583657265 -0.07605356723070145 0.13692522048950195 1.129656195640564 0.46832334995269775 -0.13306419551372528 0.6220535039901733 0.15437902510166168
acquitted -0.060877908021211624 -0.009213848039507866 -0.007846837863326073 -0.02644411474466324 -0.011578771285712719 -0.05960894748568535 -0.044773396104574203 -0.09339381009340286 -0.06067752465605736 0.08159186691045761
acre -0.05179014103487134 0.009878143668174744 0.19112159684300423 0.1907995566725731 -0.07074868679046631 -0.06014066934585571 -0.043916553258895874 -0.3295284006744623 -0.21221475303173065 -0.07278261706233025
acres 0.20875774323940277 -0.3108694888651371 0.18022003769874573 -0.028746964992024004 -0.17358122020959854 0.03688226593658328 0.05075914040207863 -0.3475687261670828 0.02367083728313446 0.031608663499355316
acrid -0.3461526036262512 0.08689133077859879 -0.4085668921470642 0.054897285997867584 -0.1678684502840042 -0.3470032215118408 0.7501851320266724 -0.030981164425611496 0.6641390919685364 0.45664283633232117
across 0.4902723431587219 -0.48172998428344727 0.5999434292316437 -0.04340258240699768 -0.3023732304573059 -0.26695159124210477 -0.05589505936950445 -0.49616388976573944 0.5688472986221313 -0.19202063977718353
act -0.19434158504009247 -0.45264261960983276 -0.4360649287700653 -0.14126485586166382 -0.058046162128448486 -0.11743443459272385 -0.021606512367725372 -0.33017027378082275 -0.6823955178260803 0.23795822262763977
acted -0.39847153425216675 -0.30699169635772705 0.009918865747749805 -0.12319866567850113 -0.30310237407684326 -0.44488269090652466 0.1983826458454132 -0.3975137174129486 -0.5532354712486267 0.2608265280723572
acting -0.6316481232643127 -0.36926189064979553 0.08524636924266815 0.4274633526802063 0.15708835422992706 -0.07350169122219086 0.24424365162849426 -0.3407953977584839 -0.744593620300293 0.30405235290527344
action -0.12274817191064358 -0.3800254911184311 0.036952994763851166 -0.38977567851543427 0.07191224116832018 -0.38715638406574726 -0.23818019777536392 -0.19500859081745148 -0.05143041908740997 0.5785336792469025
actions -0.046377453953027725 -0.5059312582015991 -0.129975363612175 -0.1682627648115158 0.009985583834350109 -0.062911756336689 0.35365304350852966 -0.4045962989330292 -0.6137565970420837 0.7400802969932556
active -0.6117021162062883 -0.22188738733530045 -0.1391177549958229 -0.0802120603621006 -0.028136943466961384 -0.11672379868105054 -0.431527704000473 -0.14968902245163918 -0.21720921248197556 0.375353679060936
actively -0.47719594836235046 -0.05934899300336838 0.006496547255665064 -0.3571103811264038 -0.10265105217695236 0.48451822996139526 0.031046299263834953 -0.23983608186244965 -0.06288959830999374 -0.5248039364814758
activities -0.7014303207397461 -0.6605669260025024 0.5617169737815857 -0.22532625496387482 0.03582913056015968 0.25029945373535156 0.3979131579399109 -0.44996675848960876 -0.0574716255068779 0.2080724686384201
activity -0.33666783571243286 -0.6548401117324829 -0.031186381354928017 -0.2644795775413513 0.39852774143218994 0.05296579375863075 0.43810293078422546 -0.4766105115413666 -0.6367682814598083 0.4739190638065338
actor -0.10205277055501938 0.3053795099258423 0.29541826248168945 0.12352924048900604 -0.03463554009795189 0.5051462054252625 0.3740710914134979 0.7041637897491455 -0.10307710617780685 0.11987059563398361
actors -0.45419129729270935 -0.26861101388931274 0.32433775067329407 0.1444312483072281 -0.040302734822034836 0.3161211311817169 -0.12186091393232346 -9.88847459666431E-4 0.04126261919736862 -0.16057239472866058
actress -0.5717279314994812 -0.49107876420021057 0.34043222665786743 0.6395831108093262 -0.30219653248786926 0.11464978754520416 0.8143863677978516 0.6487146019935608 0.5341388583183289 -0.32409486174583435
actresses 0.044390514492988586 0.00601021246984601 0.430819571018219 0.08782909065485 -0.5882847905158997 -0.0027448218315839767 0.1472560465335846 -0.1440831571817398 -0.09410154819488525 0.23728840053081512
acts -0.23607302457094193 -0.15753665938973427 -0.018097136169672012 -0.031547367572784424 -0.4228864312171936 0.3933883421123028 0.18360047228634357 0.045535579323768616 -0.1053807525895536 0.07843515835702419
actual -0.19782480224967003 -0.11879055947065353 0.060217479651328176 -0.182858653832227 -0.14524325169622898 -0.0491024402435869 -0.1649961955845356 0.009225363843142986 -0.42920107720419765 0.20717965997755527
actually 0.12942901626229286 -0.37513457983732224 -0.01449306309223175 -0.34489181637763977 -0.10214588791131973 -0.3457013666629791 -0.005089893937110901 -0.10065076127648354 -0.34447935223579407 0.4811161011457443
actuated -0.2685648500919342 -0.017444247379899025 0.17142820358276367 -0.12610386312007904 0.14947907626628876 0.07428185641765594 0.07049612700939178 0.006162495352327824 -0.3080974221229553 -0.03023103065788746
acute -0.44472986459732056 -0.522322416305542 0.1769959032535553 0.18826209008693695 -0.22859367728233337 -0.430416464805603 0.5249084234237671 -0.5993053317070007 -0.8860523700714111 0.18317455053329468
acutely -0.14310026168823242 -0.503476083278656 -0.015001152642071247 -0.33043619990348816 0.14899282157421112 -0.3978520929813385 0.19498717784881592 0.18273189663887024 -0.024120571091771126 0.424825519323349
ad 0.07955485582351685 0.03822452574968338 0.024567456915974617 0.09964962303638458 0.024987898766994476 0.010175163857638836 0.03975263983011246 -0.018560241907835007 -0.08517756313085556 -0.02546958439052105
adage -0.048136841505765915 0.05469825491309166 0.15849615633487701 0.0985504761338234 0.02398759126663208 -0.06112780049443245 -0.1441543698310852 -0.007327404338866472 -0.010321923531591892 0.05324472486972809
adam -0.5665733218193054 0.291372686624527 -0.012662597000598907 -1.5304890871047974 -0.481307715177536 0.36057284474372864 0.012868283316493034 -0.16000407934188843 -0.39419373869895935 0.7741205096244812
adamant 0.10801370441913605 0.01924140751361847 0.07218620926141739 0.05156924948096275 0.021969033405184746 0.01532908994704485 -0.07988815009593964 -0.004837001673877239 2.761865616776049E-4 -0.04404694586992264
adapt 0.010756690055131912 -0.2576577961444855 -0.10055465251207352 -0.11121481657028198 -0.11667934060096741 -0.03334493190050125 -0.1066225916147232 0.17835690081119537 -0.12673978507518768 -0.05417638272047043
adaptations -0.03380002826452255 -0.1306324005126953 0.08134050667285919 -0.02107812650501728 -0.061086174100637436 0.026931511238217354 -0.023654351010918617 -0.09786597639322281 -0.045356057584285736 0.01270938478410244
adapted -0.1197337694466114 -0.22806813567876816 0.020330372732132673 0.16022048611193895 -0.05627763643860817 0.1675659380853176 0.049121612682938576 -0.1692315749824047 -0.095871158875525 0.17764641903340816
adapting -0.41464224457740784 -0.11524838209152222 0.4434736967086792 0.2979162633419037 0.00630272226408124 0.254314661026001 -0.1119830459356308 0.07876530289649963 0.26318612694740295 -0.033219486474990845
add -0.5457873791456223 0.03360578417778015 -0.07067117188125849 -0.11687467992305756 0.0612674355506897 -0.030978403985500336 -0.2574196010828018 0.13636239059269428 -0.19445732980966568 -0.30939193814992905
added 0.12535953521728516 -0.019506849348545074 -0.4318217486143112 0.2056340128183365 -0.33702452480793 -0.3425801396369934 0.166722871363163 0.0726363081485033 -0.06488391011953354 0.204497329890728
addicted -0.36802947521209717 -0.4586424231529236 0.07408909499645233 -0.17777733504772186 -0.4583967626094818 0.21233274042606354 0.15859615802764893 0.2791188061237335 -0.4557654857635498 -0.15668985247612
adding -0.5001548528671265 0.22539284825325012 -0.12732213735580444 0.24282020330429077 -0.5131354928016663 0.8367483019828796 0.44513559341430664 -0.22106508910655975 -0.7481509447097778 0.02385740354657173
addition -0.1897749174386263 0.09329631924629211 0.3645153446123004 -0.11991733685135841 -0.09182284399867058 0.27986686304211617 -0.07920856215059757 0.5040692463517189 0.03007538616657257 -0.209477961063385
additional 0.04688749089837074 -0.0026285499334335327 0.09036422148346901 -0.04743450880050659 -0.2482292801141739 0.15724681317806244 -0.07258839579299092 -0.08798215072602034 0.004176528193056583 -0.10388980433344841
additions 0.026229646056890488 -0.02973242523148656 -0.04544644244015217 0.027825920842587948 0.059979043900966644 0.09650458907708526 0.02513814438134432 0.13591986522078514 0.047823668719502166 -0.08584763167891651
address -0.2957841083407402 0.09904160536825657 -0.09889912977814674 0.03736250102519989 -0.25627011619508266 0.1378888115286827 -0.03251977823674679 -0.1667814552783966 -0.16821235232055187 -0.1508747935295105
addressed 0.155251394957304 -0.4291631281375885 0.5307474434375763 0.20594829693436623 -0.6607529819011688 -0.21640581637620926 0.586389571428299 0.18117700517177582 -0.07456741109490395 -0.05472102761268616
addresses 0.01228037104010582 0.015560186468064785 -0.04033742845058441 0.048061784356832504 -0.01482241041958332 -0.009697084315121174 -0.0321425125002861 0.04544997215270996 -0.031073637306690216 -0.019092271104454994
addressing 0.2683480326086283 0.15620813611894846 0.060426199808716774 0.3363727470859885 -0.3556864559650421 -0.39225202798843384 -0.06365712732076645 0.20137540809810162 -0.11370229348540306 0.07737159356474876
adds 0.11392796784639359 -0.14544224739074707 0.023867808282375336 -0.08285589516162872 -0.07515169680118561 -0.12208548933267593 -0.12997889518737793 -0.07180973887443542 -0.23410089313983917 -0.09007088840007782
adducing -0.01621665060520172 -0.09242379665374756 0.0019954261370003223 0.15127769112586975 -0.1362653374671936 0.020075425505638123 0.031200546771287918 0.1442580372095108 0.06623606383800507 8.23593232780695E-4
adele -0.028050215914845467 0.046004317700862885 -0.0429859459400177 -0.00913295615464449 -0.02949516288936138 0.025699898600578308 -0.0015730857849121094 -0.05274627357721329 0.01992003060877323 0.017402349039912224
adept -0.20057320594787598 -0.13475854694843292 0.7307687997817993 -0.5002978444099426 -0.315739244222641 0.20191851258277893 0.29633772373199463 0.4370044469833374 0.24062365293502808 0.037303775548934937
adequately -0.10990207642316818 0.11653682589530945 -0.07073250412940979 0.04678930714726448 -0.13563576340675354 0.07407171279191971 -0.04652736335992813 0.06985229253768921 -0.1835779994726181 -0.0946873351931572
adhere -0.34730497002601624 -0.11563929170370102 -0.4106115400791168 -0.0632164478302002 0.029516376554965973 -0.25951629877090454 -0.36033499240875244 0.196181520819664 0.31543442606925964 0.11499738693237305
adhered -0.004226952791213989 -0.09915244579315186 0.004846338182687759 0.25417864322662354 -0.2945055067539215 -0.19794303178787231 -0.2726882994174957 0.06586281955242157 -0.04050420597195625 -0.03973366320133209
adherents -0.42104870080947876 -0.6055853962898254 0.37851035594940186 0.3943023383617401 -0.18946827948093414 0.23434777557849884 0.32543426752090454 -0.27778252959251404 -0.4315599203109741 0.27767637372016907
adhesion -0.06743961572647095 -0.03164317086338997 0.021818505600094795 0.018711380660533905 0.009141193702816963 0.007512824609875679 0.0446128323674202 -0.05606606602668762 -0.0328407883644104 0.026446573436260223
adieu 0.7728533148765564 1.0877745151519775 -0.6004288196563721 0.020277515053749084 -0.17698392271995544 -0.1492803394794464 -1.0823630094528198 0.7523981928825378 0.28843173384666443 0.3329959809780121
adjacent 0.05233694612979889 -0.5729095339775085 0.5809114575386047 -0.632016122341156 -0.09289857000112534 -0.7255299091339111 -0.6220046877861023 -0.227350652217865 0.16871294379234314 -0.2048080563545227
adjoining -0.0099823959171772 0.22805313020944595 0.6111720204353333 -0.09109370410442352 -0.46361666650045663 0.13175582140684128 0.38709285855293274 0.12917552143335342 0.7504515685141087 0.04882451891899109
adjust 0.10061035980470479 -0.15113591775298119 0.22056381031870842 -0.1781584918498993 -0.00721365213394165 0.09856896102428436 0.11945952847599983 0.0828434694558382 -9.14745032787323E-4 -0.04901843378320336
adjusted 0.3465764340944588 -0.2114570289850235 -0.023042067885398865 0.5554865822196007 -0.43547986447811127 0.2387220822274685 0.5066802352666855 0.3480571135878563 0.4602181985974312 -0.4929286763072014
adjusting 0.24529489874839783 -0.19307856261730194 0.6072303056716919 0.22783322632312775 -0.3133726418018341 0.5502161383628845 0.5313705205917358 0.8980197906494141 0.7910706400871277 0.1379111260175705
adjutant 0.2947624623775482 0.2820398211479187 0.9664334058761597 0.5838296413421631 -0.45000067353248596 -0.6419363021850586 0.47571876645088196 0.24995733797550201 -0.43898528814315796 -0.4008168578147888
adjutants 0.7106115818023682 -0.37540075182914734 0.5401774048805237 0.21235403418540955 -0.7406233549118042 -0.7896119356155396 0.29012274742126465 -0.23886118829250336 -0.14561055600643158 -0.2171812802553177
administer -0.9057601690292358 0.672412633895874 -0.25898411870002747 0.26908865571022034 -0.9201623797416687 -0.4999893009662628 -0.3773013651371002 0.2388608753681183 0.3744213581085205 0.9522898197174072
administered -0.8375546336174011 0.14733637869358063 -0.08896107971668243 -0.2962639033794403 -0.1979200541973114 -0.21282537281513214 -0.2806486189365387 0.11351308226585388 0.4316115081310272 -0.07991666346788406
administration -0.0824415534734726 -0.20502673089504242 0.15953435003757477 -0.10135602205991745 -0.04426531493663788 0.08297289907932281 -0.006877549458295107 -0.0855875089764595 -0.11697597801685333 0.0906037837266922
administrative -0.2513166666030884 -0.032911673188209534 0.625557005405426 -0.030063385143876076 -0.07847139984369278 0.31233692169189453 0.09813067317008972 -0.20504793524742126 -0.24626296758651733 0.3690696954727173
administrator 0.020289307460188866 -0.42454710602760315 0.11307983845472336 0.15260577201843262 -0.03987393528223038 0.15504837036132812 -0.06920750439167023 -0.04184815287590027 -0.18488065898418427 0.3783007264137268
administrators -0.056869082152843475 -0.02164882980287075 0.026478257030248642 -0.004621557425707579 0.054263707250356674 -0.10780060291290283 0.12467081099748611 -0.07113092392683029 -0.07206790894269943 -0.03205664083361626
admirable 0.01951281912624836 -0.15454626083374023 -0.23422539234161377 0.06529422104358673 0.1574334353208542 0.2344561368227005 -0.059713464230298996 0.31800559163093567 0.020675042644143105 0.6620115637779236
admirably -0.14933522045612335 -0.013906797394156456 -0.026630833745002747 -0.019716817885637283 0.045986779034137726 -0.10055084526538849 0.13381575047969818 -0.01842905953526497 -0.06889324635267258 -0.059256769716739655
admiral -0.04148389771580696 -0.09131630510091782 0.10929010063409805 -0.006038794293999672 0.013102087192237377 0.06221592798829079 0.015504551120102406 -0.017293522134423256 -0.04299478977918625 -0.005071883089840412
admiration -0.3632674962282181 -0.53145831823349 0.07805342972278595 0.3237746059894562 0.06542816758155823 0.2678660675883293 0.29873305559158325 0.25108712911605835 0.18174995854496956 -0.006132960319519043
admire -0.0707535669207573 0.1854187399148941 -0.4307974576950073 0.1036815196275711 -0.22213616967201233 0.2818799614906311 -0.24440796673297882 0.032326262444257736 -0.4169529974460602 0.02736172452569008
admired -0.6006488800048828 -0.44098809361457825 0.4704829454421997 0.6518867015838623 -0.30854055285453796 -0.05020061135292053 0.355282187461853 0.4635521173477173 0.1952584981918335 -0.11873487383127213
admirer -0.45822808146476746 0.3640466332435608 0.07001003623008728 -0.18260490894317627 0.5989851355552673 -0.2195129096508026 -0.1162135899066925 0.1406259834766388 -0.7507363557815552 -0.03282758593559265
admires -0.017509782686829567 0.004279786720871925 0.06505029648542404 0.04345062002539635 -0.014055578038096428 0.00765142310410738 0.034602005034685135 0.003167599206790328 -0.03538193926215172 -0.00786462053656578
admiring 0.018603196367621422 -0.15647836029529572 0.48373305797576904 0.39178016781806946 -0.14065617322921753 0.4823946952819824 0.38730189204216003 0.4956551492214203 0.08691966533660889 0.2389151006937027
admiringly 0.14718468487262726 -0.10045981965959072 -0.027239358983933926 -0.28099874034523964 0.13829137571156025 -0.05501414439640939 -0.11828322021756321 0.12468161061406136 -0.05999324843287468 0.09622761141508818
admission -0.56929612159729 -0.11448013782501221 0.23965737223625183 0.20632228255271912 -0.41863298416137695 0.7353287935256958 -0.15367577970027924 0.429657906293869 0.0597681924700737 -0.5791984796524048
admit -0.32107890397310257 -0.0036583617329597473 -0.30945633351802826 -0.03357827663421631 0.31580017507076263 -0.21905876323580742 -0.3048718571662903 -0.13900764659047127 -0.6605972349643707 0.17272153496742249
admits -0.0749578457325697 -0.3410014286637306 -0.0023772120475769043 0.06026776134967804 0.19108211249113083 0.06037866696715355 -0.0066437795758247375 -0.04761326685547829 -0.07763966545462608 0.2509896010160446
admitted -1.249901294708252 -0.21641388535499573 0.1527118682861328 0.0841546431183815 -0.4112156629562378 -0.5952640771865845 -0.002745246049016714 -0.01698271930217743 -0.479889452457428 -0.20575110614299774
admitting -0.5557817816734314 0.03183390572667122 0.7180896997451782 0.2203534096479416 0.04238046705722809 -0.2020796835422516 0.10516171157360077 -0.037601929157972336 -0.2262025624513626 -0.5378028154373169
admonish -0.13378392159938812 0.06828664243221283 0.010204956866800785 0.21047398447990417 -0.24735257029533386 -0.22525744140148163 -0.6226668357849121 0.16903997957706451 -0.0012684431858360767 -0.44966140389442444
admonishing 0.04273594170808792 0.4918351471424103 0.27520182728767395 0.3399890959262848 -0.2822156250476837 0.583084225654602 -0.030831828713417053 -0.234042227268219 -0.04323798045516014 -0.5122271776199341
admonishingly 0.03933246433734894 0.4389655292034149 -0.6707629561424255 -0.053933992981910706 -0.07901585847139359 0.08186781406402588 -0.6543906331062317 0.09185674041509628 -0.21867509186267853 -0.27365368604660034
admonitory -0.2088945358991623 -0.5601738095283508 -0.06376238167285919 -0.03593942150473595 -0.1770653873682022 0.051207661628723145 -0.11440622061491013 -0.16033244132995605 0.4485199451446533 -0.1804696023464203
adonai -0.25943970680236816 0.14712119102478027 0.007203614804893732 -0.06548593193292618 0.3288998305797577 0.5445940494537354 -0.49533751606941223 -0.4693230092525482 -0.04595743492245674 0.11703982204198837
adopt -0.410899817943573 -0.4829706847667694 0.3079867660999298 -0.10047178715467453 -0.22768689692020416 -0.11718203872442245 -0.2666630148887634 0.16304734349250793 -0.3325451612472534 -8.571952348574996E-4
adopted -0.18168538436293602 -0.19310127943754196 0.21826212108135223 -0.13525492325425148 -0.16556910425424576 0.008642598986625671 0.19483203627169132 -0.046572476625442505 -0.2246403070166707 -0.009666398167610168
adopting -0.48680296540260315 -0.6021724939346313 -0.16357679665088654 0.27836307883262634 0.09881587326526642 0.26382267475128174 -0.10919633507728577 -0.10746049880981445 -0.04818398505449295 0.3822689354419708
adoption -0.2798590064048767 0.030286019667983055 0.5520442128181458 -0.3685142397880554 -0.02747589536011219 -0.03050735592842102 -0.24937911331653595 -0.0739598497748375 0.11382786184549332 -0.03551490232348442
adorable -0.09176947921514511 -0.0012811031192541122 0.6384834051132202 0.22495339810848236 -0.19115547835826874 0.2755531966686249 -0.13829822838306427 0.3983483910560608 0.35510337352752686 0.471540242433548
adoration -0.5894021987915039 -0.4956169128417969 0.447378009557724 0.5089607834815979 0.1203778088092804 1.3077067136764526 -0.5994204878807068 0.04833071306347847 0.4149862825870514 -0.1360168606042862
adore -0.2431500107049942 0.43215829133987427 -0.12144835293292999 0.08825327455997467 -0.7593545317649841 0.3493298888206482 -0.5221008062362671 -0.37515878677368164 -0.288395494222641 0.1576484739780426
adored -1.0269156694412231 -0.16123966872692108 -0.11818992346525192 0.44557228684425354 -0.10987431555986404 0.2848317623138428 -0.7344631552696228 -0.04996120184659958 -0.12541598081588745 -0.18609924614429474
adorer -0.1446605771780014 -0.7698663473129272 0.1516617387533188 0.18255813419818878 -0.19932930171489716 0.12891046702861786 -0.33216777443885803 -0.024500282481312752 -0.3943161070346832 0.06786753982305527
adorers 0.06575566530227661 -0.10707747936248779 -0.04288313910365105 0.019151348620653152 -0.02537260577082634 -0.025529969483613968 -0.25267481803894043 -0.10025371611118317 -0.1630590260028839 0.005473081022500992
adores 0.519659698009491 0.047061674296855927 0.6019112467765808 -0.11090561002492905 0.22522112727165222 0.5666563510894775 -0.8498783111572266 0.3758503794670105 -0.27486297488212585 -0.0076749613508582115
adoring -0.04444194585084915 -0.14816775918006897 -0.08925408869981766 0.5228943824768066 -0.13353779911994934 0.28876057267189026 -0.19608736038208008 0.7046532034873962 0.03800869733095169 -0.0030068913474678993
adorn -0.05190063640475273 0.025416463613510132 -0.07597707957029343 -0.06115998327732086 -0.08253108710050583 0.022523727267980576 -0.03321436420083046 0.027558375149965286 -0.05621982365846634 -0.09496432542800903
adorning -0.051761407405138016 -0.03595671430230141 0.06630167365074158 0.0566742904484272 -0.16282837092876434 0.2387857735157013 0.033382099121809006 0.09794266521930695 -0.050851546227931976 0.08924596011638641
adornment -0.40958186984062195 -0.7757901549339294 -0.011250143870711327 -0.20395979285240173 -0.2685784697532654 0.3875899612903595 0.1320028007030487 0.5240659117698669 -0.18015918135643005 0.2411307990550995
adraksin -0.030138570815324783 -0.31928154826164246 0.36254286766052246 0.17406636476516724 -0.14485397934913635 0.018801476806402206 0.10300159454345703 0.5641019344329834 0.047864168882369995 -0.23460522294044495
adrift -0.1644175946712494 -0.12940648198127747 0.0174076110124588 -0.20701155066490173 -0.203677698969841 0.20281842350959778 0.0910724550485611 -0.2641882002353668 0.08136722445487976 -0.053272370249032974
adroit -0.4774656295776367 -0.26313790678977966 0.179754376411438 0.34664347767829895 -0.26305460929870605 0.32797136902809143 -0.2589649260044098 0.16401813924312592 0.2040298730134964 0.046910274773836136
adroitly -0.21288947761058807 0.026476051658391953 0.16008345782756805 0.2756708562374115 -0.2439417839050293 -0.15481656789779663 0.230376735329628 0.6452032327651978 -0.0199509859085083 -0.07568453997373581
adroitness 0.5359500646591187 0.1162300780415535 0.517417311668396 0.3602161109447479 -0.28309282660484314 0.46879589557647705 0.05864252895116806 -0.10684306919574738 -0.7110182642936707 -0.36672720313072205
adulation -0.016860870644450188 -0.08127500861883163 -0.04136320948600769 0.014764919877052307 0.022553328424692154 0.018429676070809364 0.06477595120668411 -0.05305442214012146 -0.10265234857797623 0.07192184031009674
advance -0.037760486360639334 -0.11350233852863312 0.4392966628074646 -0.24961361708119512 0.09235529601573944 -0.1452910713851452 -0.014874372631311417 -0.3248552605509758 -0.5913033336400986 -0.31597184762358665
advanced 0.7194289565086365 -0.6277114748954773 0.6054468750953674 -0.20186607539653778 -0.3828778862953186 -0.5605823993682861 0.3076338469982147 -0.754581093788147 0.26506632566452026 -0.26619938015937805
advances -0.2577041685581207 -0.14164580404758453 -0.0024114479310810566 -0.3238176703453064 0.27684175968170166 -0.004836982116103172 -0.18758845329284668 0.01023436151444912 -0.34151825308799744 0.040485795587301254
advancing 0.7967920899391174 -0.547003984451294 0.8770483732223511 -0.13296104967594147 -0.20162329077720642 -0.49138057231903076 0.07378002256155014 -0.6720545887947083 -0.42507487535476685 0.023253925144672394
advantage 0.22159358114004135 -0.374278117204085 0.35289281979203224 -0.05256262421607971 -0.21742547303438187 -0.035512011498212814 -0.17438216134905815 -0.35776636749505997 -0.7719224691390991 0.004256397485733032
advantageous -0.8524842858314514 -0.5405568480491638 0.16734068095684052 -0.1387813240289688 0.18494583666324615 0.13102129101753235 -0.33932435512542725 -0.4035281538963318 -0.7642516493797302 0.26480257511138916
advantageously -0.3418489396572113 -0.02096565067768097 0.19396637380123138 -0.269721657037735 -0.1822611689567566 0.08492597192525864 -0.3617887496948242 -0.044190287590026855 0.021689195185899734 -0.12088194489479065
advantages -0.5494381040334702 -0.1782674789428711 0.2386827990412712 -0.3467913717031479 -0.032253339886665344 0.14818882662802935 -0.23964320123195648 -0.011165708303451538 -0.32047926634550095 0.37579063326120377
advent 0.10667778551578522 -0.19309720396995544 0.24739764630794525 -0.3820447325706482 0.29404035210609436 0.3144802749156952 0.18433748185634613 -0.372632771730423 -0.01801352947950363 0.2637888193130493
adventure -0.04603894427418709 0.07813967019319534 0.36703115701675415 0.32416826486587524 -0.3204244375228882 -0.16059249639511108 0.23740777373313904 0.03359676152467728 -0.15860290825366974 -0.37309595942497253
adventures -0.25153401494026184 -0.1756065934896469 0.22329087555408478 0.24491602182388306 0.40678131580352783 0.6213050484657288 -0.10523556917905807 0.09436991810798645 0.0826839804649353 -0.04425814002752304
adversary 0.2607688009738922 -0.06536822021007538 0.2508392930030823 -0.42154017090797424 -0.31669169664382935 0.17540740966796875 -0.2988095283508301 0.42364758253097534 0.3078951835632324 -0.07304448634386063
advertisement -0.11139711737632751 -0.0622791089117527 -0.1175573319196701 0.16808216273784637 0.14904916286468506 -0.06607488542795181 -0.11421120911836624 0.018326004967093468 -0.008010787889361382 0.07548864930868149
advertising 0.02551177889108658 0.1575368046760559 -0.07190108299255371 0.12413107603788376 -0.03381281718611717 -0.032825544476509094 -0.01606631651520729 0.07510148733854294 -0.18405835330486298 0.011394285596907139
advice -0.23342153057456017 -0.31003226339817047 0.03512533754110336 0.3661525994539261 -0.4278288930654526 0.2580597698688507 -0.4793475717306137 -0.12471242621541023 -0.749346911907196 -0.1584336794912815
advisable -0.10744740068912506 -0.5582863092422485 -0.23478153347969055 -0.6357904076576233 -0.39142706990242004 -0.25344428420066833 -0.4230787754058838 -0.37061160802841187 0.32753995060920715 0.6270192265510559
advise -0.2648044992238283 0.12382915616035461 -0.21439854428172112 0.018536336719989777 0.10500633716583252 0.3783617690205574 -0.5994521826505661 0.16857261210680008 -0.7523917257785797 -0.11439655721187592
advised -0.7130777835845947 -0.015340168960392475 0.5259594917297363 0.04997299984097481 -0.6671344041824341 -0.19423995912075043 -0.6279116868972778 -0.2543801963329315 -0.6420683264732361 -0.18325141072273254
adviser -0.042203810065984726 -0.002966824686154723 0.17601166665554047 0.09110789746046066 0.2986459732055664 0.01563122123479843 -0.35926496982574463 -0.07615325599908829 -0.41173312067985535 0.16836757957935333
advisers -0.5029317736625671 0.2031901478767395 0.18072864413261414 0.42369773983955383 -0.6294411420822144 -0.5446513295173645 0.11168798059225082 -0.4142858684062958 -0.4207555055618286 0.42657724022865295
advising -0.0291801355779171 -0.017787707969546318 0.03904900327324867 -0.3546653687953949 -0.14686435461044312 -0.1817997395992279 -0.999295711517334 0.09261757135391235 -0.4406355619430542 0.8163630366325378
advocated -0.028907839208841324 0.003419499145820737 -0.012827171944081783 -0.050978563725948334 -0.06468562036752701 0.07182096689939499 0.0237384345382452 -0.016774438321590424 -0.0731266662478447 -0.003834326285868883
advocates -0.46021100878715515 -0.053979869931936264 0.744766354560852 -0.5793388485908508 0.32266634702682495 -0.1629970818758011 -0.002554631559178233 -0.0558372400701046 0.0048095304518938065 0.15548428893089294
advocating -0.21638287603855133 0.004488693550229073 0.1163676306605339 -0.05540210381150246 -0.08564748615026474 0.064662404358387 0.047120630741119385 0.24143190681934357 -0.12888570129871368 0.03291655331850052
aerial -0.0874297097325325 -0.218876913189888 0.12115705013275146 0.06317349523305893 -0.18633577227592468 0.056002628058195114 0.29552844166755676 -0.07543954253196716 0.10649457573890686 0.040972914546728134
aesthetic -0.18249641358852386 0.14699231088161469 0.10895563662052155 -0.2354670763015747 -0.4781758785247803 -0.10263527184724808 -0.19288623332977295 0.664969265460968 0.24308882653713226 0.30293941497802734
afar 0.7030826807022095 -0.6798501014709473 0.10435182601213455 -0.023467862978577614 0.044161126017570496 -0.7301079034805298 0.31079989671707153 -0.5566568374633789 0.9573838710784912 0.3172910213470459
affability 0.11389172077178955 -0.00456328084692359 0.10377636551856995 0.08426441997289658 -0.30694395303726196 0.15590617060661316 0.27100735902786255 0.07769757509231567 -0.0010934299789369106 0.15636686980724335
affable -0.14675387740135193 -0.09350942820310593 -0.08130896091461182 0.17576079070568085 -0.3118540644645691 -0.07506610453128815 0.10768395662307739 0.09234970808029175 0.017853695899248123 -0.08829772472381592
affably 0.41846683621406555 0.05313277989625931 0.014821323566138744 0.031208757311105728 -0.12419106811285019 0.43767428398132324 0.6696836352348328 1.017271876335144 0.36576414108276367 0.007653160020709038
affair -0.13862553052604198 -0.05447225319221616 -0.04045406938530505 0.03288162872195244 -0.10685967095196247 -0.0777488648891449 -0.029029352590441704 -0.1329958513379097 -0.38207997381687164 -0.12618039920926094
affairs -0.16693902062252164 0.039885520935058594 0.02610243484377861 -0.6617530286312103 0.05841231346130371 0.2787720821797848 0.21864402294158936 -0.0538894459605217 -0.5737631171941757 0.234919972717762
affect -0.4159638583660126 -0.2140942756086588 -0.39049243927001953 0.05086900293827057 0.13023202121257782 -0.10962114948779345 -0.050938695669174194 0.18806076049804688 -0.45716817677021027 -0.24876676499843597
affectation -0.5305120348930359 -0.37860655784606934 0.7225613594055176 -0.05093535780906677 0.1695721298456192 0.1807226687669754 -0.1563643366098404 0.6004566550254822 -0.1216302216053009 0.12736542522907257
affected -0.4814199060201645 -0.1440279446542263 -0.22274231165647507 0.25350128300487995 0.03464934974908829 0.2060963585972786 0.24078214913606644 0.3529004119336605 -0.47196120023727417 -0.17459897324442863
affectedly 0.02291746810078621 -0.2902124226093292 -0.01596541330218315 0.1859477311372757 0.19020864367485046 -0.010730355978012085 0.14014174044132233 -0.13459670543670654 0.03543003648519516 -0.18474873900413513
affecting 0.24810566008090973 -0.14982923865318298 0.532833456993103 -0.13813236355781555 0.21024389564990997 -0.07777304947376251 -0.2627180218696594 0.18928024172782898 0.17200179398059845 -0.1620669662952423
affection -0.405967652797699 -0.027233445085585117 -0.006377287209033966 -0.11338808573782444 -0.3827933892607689 0.4981965497136116 -0.04899914376437664 0.31543838791549206 0.08881680481135845 0.2204509787261486
affectionate -0.568964421749115 -0.08792047202587128 -0.3822510242462158 -0.016827771440148354 0.09508562088012695 0.5333626866340637 0.1471777856349945 0.9114949107170105 0.07479224354028702 -0.3568297326564789
affectionately 0.3843933716416359 -0.2801886945962906 0.051784396171569824 -0.4189640786498785 -0.38522832840681076 0.41963305324316025 0.5695879757404327 0.9894240200519562 -0.025686219334602356 -0.009623810648918152
affections -0.008069313131272793 -0.004144676495343447 -0.02600792422890663 -0.03613348677754402 -9.365332662127912E-4 0.03582289442420006 -0.0035668956115841866 0.030118975788354874 0.02793143317103386 0.04722857102751732
affetto 0.35632461309432983 0.26539865136146545 0.732313871383667 -2.025533437728882 -0.9672544002532959 -0.48033857345581055 -0.028839435428380966 -1.4558894634246826 0.8692341446876526 -0.029224742203950882
affianced -0.7331352829933167 -0.40798893570899963 -0.07366836071014404 0.5078036785125732 0.26530081033706665 0.41053658723831177 -0.03071725182235241 0.21763399243354797 -0.22295059263706207 0.06960461288690567
affinities -0.2231370061635971 -0.07047277688980103 -0.1506294459104538 -0.32767966389656067 -0.31153765320777893 -0.5908863544464111 -0.17979706823825836 0.36787399649620056 0.27539944648742676 0.33778613805770874
affinity -0.3331519216299057 0.06432561576366425 -0.12578913569450378 -0.05993029288947582 -0.08423029631376266 0.055246589705348015 -0.14384866133332253 -0.4632438812404871 -0.033366940915584564 -0.11885262676514685
affirm -0.1540272906422615 -0.14403785578906536 -0.07399798976257443 -0.1449504168704152 0.05876396596431732 -0.13818750530481339 -0.03804302588105202 -0.16070127487182617 -0.18506715446710587 -0.06895175762474537
affirmative 0.1818360984325409 0.03518900275230408 0.09132132679224014 -0.12302513420581818 0.18969550728797913 0.39488503336906433 0.007986923679709435 0.05802338570356369 0.02524552308022976 -0.38774996995925903
affirmatively 0.2336338609457016 -0.1659184843301773 0.42566993832588196 0.650861382484436 -0.8282305598258972 0.07623251527547836 -0.002771158469840884 0.6165373921394348 0.10293306410312653 -0.6067680716514587
affirming -0.05275643244385719 -0.3747011125087738 0.06121261045336723 0.0058870078064501286 -0.016209378838539124 0.22909916937351227 0.07388407737016678 -0.03373433277010918 -0.15845520794391632 0.10756717622280121
afflicted -0.4706116318702698 0.10565769672393799 0.3647439777851105 0.15645647048950195 0.32815301418304443 0.16337911784648895 0.13998812437057495 -0.09520930051803589 0.06719756126403809 0.16631478071212769
affliction 0.27454259991645813 -0.3984908163547516 -0.004012006334960461 -0.21261490881443024 0.05823984369635582 0.009924092330038548 0.2557407021522522 0.21088258922100067 0.1257648766040802 -0.06341878324747086
afford -0.2609737291932106 -0.08088337257504463 0.13227225840091705 0.2165374532341957 0.2919801026582718 0.28854295425117016 -0.12896818667650223 -0.02029431238770485 -0.2548561654984951 -0.13367117941379547
afforded -0.3829870820045471 -0.3936876058578491 0.2549475133419037 -0.05624740943312645 0.3907407224178314 -0.28887128829956055 0.306888610124588 1.1045496463775635 0.09306655079126358 -0.08849690854549408
affording -0.05355042964220047 -0.28176647424697876 -0.01718752272427082 0.03804842755198479 -0.1604641079902649 0.29429060220718384 0.1429179608821869 0.07818906754255295 -0.0884670615196228 0.23260597884655
affords -0.18228928744792938 -0.12018367648124695 0.05895134061574936 0.12590043246746063 0.03253070265054703 0.06456468254327774 0.11747303605079651 -0.07190947979688644 -0.04486147686839104 0.09967299550771713
affright 0.13352788984775543 -0.06923636794090271 0.02760712429881096 -0.03887086361646652 -0.04404144734144211 -0.06774836033582687 0.1461934596300125 0.079551562666893 0.07796376198530197 0.036199409514665604
affronted -0.27949896454811096 -0.08699259161949158 0.030017241835594177 0.17125603556632996 0.1475556194782257 0.12187707424163818 -0.03407531976699829 0.023667022585868835 -0.16885057091712952 0.006196348927915096
affronts -0.015955578535795212 -0.1971164494752884 -0.16433610022068024 -0.8041222095489502 0.053593676537275314 0.6504054665565491 -0.38320472836494446 0.02988050878047943 -0.12482298165559769 0.45505839586257935
aflame -0.18977822363376617 -0.5905006527900696 0.08647046983242035 -0.016801051795482635 -0.3613007366657257 0.4191649258136749 -0.03597392141819 0.7117239832878113 0.33547496795654297 -0.0988253653049469
afloat 0.06479520350694656 0.037939418107271194 0.15326035022735596 0.2207421362400055 0.3345789909362793 -0.3901710510253906 0.436603844165802 0.4609108865261078 -0.0482870489358902 0.3145964443683624
afore -0.2031920850276947 0.11823152750730515 -0.15497857332229614 -0.18417970836162567 -0.41851940751075745 -0.18686094880104065 -0.05204741656780243 0.27830302715301514 -0.3088308870792389 -0.14078712463378906
afraid -0.16991581209003925 -0.22033129632472992 -0.2062817458063364 0.3219984546303749 0.3687615245580673 -0.2628738731145859 0.09539477899670601 -0.3004096802906133 -0.3736858442425728 -6.059780716896057E-4
afresh -0.27288126945495605 -0.016011444851756096 0.4247523546218872 0.35875070095062256 -0.1660202294588089 0.7303140163421631 -0.659672737121582 -0.15576417744159698 0.5447875261306763 -0.8412964344024658
africa -0.24366964399814606 -0.15345552563667297 0.24080653488636017 -0.04337058588862419 0.025435127317905426 0.2890703082084656 0.3719266355037689 -0.3548358380794525 -0.40327176451683044 -0.047547463327646255
africans -0.006176413036882877 -0.020779669284820557 0.017903251573443413 -0.05490592494606972 -0.003977867774665356 0.01101475115865469 -0.025356121361255646 0.02491985447704792 0.009156177751719952 -0.021622557193040848
aft -0.10936320573091507 -0.3493548631668091 0.06313248723745346 -0.11498548090457916 -0.355155348777771 -0.1935053914785385 -0.19382457435131073 -0.07044560462236404 0.2502850592136383 0.2977477014064789
after -0.3192087709903717 -0.3306892467662692 0.09212964167818427 0.1874545719474554 -0.41454996168613434 0.31840810738503933 0.20668481977190822 -0.15434040129184723 0.10163279622793198 -0.3779602721333504
afterglow 0.1681544277817011 0.10779025126248598 0.14632561430335045 -0.19563663750886917 0.11914202757179737 0.4719367139041424 0.2549661733210087 -0.03779632691293955 0.49839367531239986 -0.08258077967911959
afterlife -0.03786209225654602 -0.07589991390705109 0.03347785025835037 -0.02254663035273552 -0.04477091506123543 0.025654828175902367 0.06722499430179596 -0.01747838966548443 0.002308119321241975 0.03063986636698246
afternoon -0.01721174642443657 -0.48638176918029785 0.35165591537952423 -0.13987889885902405 -0.08295904099941254 -0.38151007890701294 0.1991032250225544 -0.2669842690229416 0.1958043910562992 -0.019632384181022644
afternoons -0.005316641181707382 -0.13609464466571808 0.06259728968143463 0.033465415239334106 -0.13740670680999756 0.14182870090007782 0.11850395798683167 0.0017665545456111431 0.13641607761383057 -0.1749822050333023
afterward 0.05443780869245529 -0.3203548677265644 -0.06510832533240318 -0.21625847183167934 0.04460492730140686 0.03881373256444931 0.22282106429338455 -0.07236842066049576 0.029466676525771618 -0.09942924976348877
afterwards -0.46914102137088776 -0.321326807141304 0.10052269697189331 -0.1848043231293559 -0.406726136803627 -0.2908364310860634 -0.12303979694843292 -0.08584533003158867 -0.12009590119123459 -0.012986164540052414
afwaid -0.21110492944717407 0.21875755488872528 -0.3634675145149231 -0.5699204206466675 -0.46150097250938416 -0.1640072464942932 -0.7110601663589478 -0.1242058277130127 0.1868811845779419 0.3784739673137665
again 0.08228496462106705 -0.7111243903636932 0.03173591196537018 0.17653216049075127 -0.42122161388397217 0.006602169945836067 0.18567755818367004 0.12467649951577187 0.06347290426492691 -0.2748126983642578
against 0.2733199745416641 -0.5864388942718506 -0.09957031905651093 -0.16747315635439008 -0.14599137380719185 -0.11168755777180195 0.17489188723266125 -0.12741533666849136 -0.0395788848400116 0.30599717795848846
agate -0.03658971190452576 0.014658749103546143 0.2574413847178221 -0.11433632671833038 -0.29291194677352905 0.43859198689460754 0.030216393992304802 0.1971179274842143 0.24571891129016876 0.32193385250866413
age -0.6544564068317413 -0.14416557550430298 -0.395250603556633 0.3220903016626835 0.4838516414165497 -0.17901258543133736 -0.2443593069911003 -0.47101256251335144 -0.2244274914264679 -0.07598638534545898
aged -0.34902286529541016 -0.40954381227493286 -0.2647221088409424 -0.019767148420214653 0.7151501774787903 0.0366140753030777 0.5978847742080688 0.4743114113807678 0.6429992318153381 -0.31313058733940125
agencies -0.06024148315191269 0.0610785186290741 -0.08606096357107162 0.01940164901316166 0.053814250975847244 -0.001200173981487751 0.03141108527779579 -0.09050597250461578 -0.02873467095196247 0.09693359583616257
agent -2.56391242146492E-4 -0.0012070853263139725 0.0020954073406755924 0.015785865136422217 -0.01929767243564129 0.008795269182883203 -0.004925224930047989 0.02474496781360358 -0.019218668108806014 0.050633948761969805
agents -0.016467217355966568 -0.2138666957616806 0.14806686341762543 0.07925745844841003 0.1324014663696289 -0.1241471990942955 0.008250697515904903 -0.07441159337759018 -0.033663585782051086 0.08936214447021484
ages -0.3930023591965437 0.20206911861896515 -0.08057766407728195 -0.11908359453082085 -0.46019168570637703 0.34390589594841003 -0.2441445142030716 0.15440212190151215 -0.4051894024014473 -0.03321313578635454
aggervation -0.29196852445602417 0.03997580707073212 -0.38143038749694824 -0.03280104324221611 -0.12008717656135559 -0.3802506923675537 0.10804600268602371 0.33465442061424255 -0.2583426833152771 -0.15449918806552887
aggrandizement -0.12269286066293716 -0.30690422654151917 0.009469965472817421 0.14657767117023468 0.0532355010509491 -0.0468684621155262 0.04670944809913635 -0.20932933688163757 -0.2782915234565735 0.3432876467704773
aggravate 0.12686952948570251 -0.1453452706336975 -0.1601300835609436 0.019505906850099564 -0.15380451083183289 0.0480228029191494 -0.06537668406963348 -0.06337852776050568 0.10454238206148148 -0.12007010728120804
aggravated 0.0072463927790522575 -0.02331949770450592 0.01668248139321804 0.04151373356580734 -0.07816269993782043 0.02579633891582489 -0.046797920018434525 -0.018231740221381187 -0.03674835339188576 -0.03874139487743378
aggravating -0.03401030972599983 0.34046733379364014 -0.055933281779289246 -0.026304055005311966 0.15706957876682281 -0.12397107481956482 -0.40790480375289917 -0.3170912265777588 -0.09763247519731522 -0.008469978347420692
aggression -0.38353103399276733 -0.14023877680301666 -0.012236032634973526 0.3126818537712097 0.29674768447875977 0.12315826117992401 1.3258494436740875E-4 -0.31568339467048645 -0.4592624306678772 0.07505182176828384
aggressive 0.07399891316890717 -0.07488036155700684 0.06655983626842499 0.010221795178949833 -0.00642009824514389 0.015022145584225655 0.04834505170583725 -0.048999398946762085 -0.11734949797391891 0.09411605447530746
aggressively -0.1226549744606018 -0.4698752760887146 0.12719397246837616 -0.07661993056535721 -0.15709692239761353 -0.08954427391290665 -0.1818903088569641 0.0010587825672701001 0.2817337214946747 0.1362912356853485
aggressor -0.3471083641052246 0.026783224195241928 0.027088548988103867 0.15023429691791534 -0.3380643427371979 0.004193741828203201 -0.30015993118286133 -0.024019896984100342 -0.467724084854126 0.11217749118804932
aggrieved -0.054509587585926056 -0.42567223752848804 0.07780353911221027 -0.2050064653158188 -0.11615224182605743 0.1221599169075489 0.1785973720252514 -0.037507422268390656 -0.15076332911849022 0.1689760982990265
aghast 0.28082915395498276 -0.05000876076519489 -0.07633159309625626 -0.25801022350788116 0.029959246516227722 0.11555933952331543 -0.04281802475452423 0.5710025578737259 0.1070649828761816 -0.7157148346304893
agile 0.017665119841694832 -0.4154599606990814 0.1251661330461502 -0.23621730506420135 0.004047904163599014 0.39856189489364624 0.13779325783252716 -0.04409791901707649 1.1223726272583008 -0.06818282604217529
agility -0.03701147064566612 -0.44071638584136963 0.2338831126689911 -0.07650714367628098 -0.16419538855552673 0.3273925483226776 0.5754910707473755 0.06251302361488342 0.24604123830795288 0.005454137455672026
agin -0.09079952538013458 -0.3570154905319214 -0.6829098463058472 -0.22560052573680878 0.18216140568256378 -0.3150224983692169 -0.19743292033672333 0.15377496182918549 -0.2367338240146637 -0.4335680305957794
agitated -0.6602379083633423 -0.3408842384815216 -0.42313602566719055 0.14855779707431793 -0.41556957364082336 0.03005155548453331 0.6852124929428101 0.2977617681026459 -0.0499725379049778 -0.3421003520488739
agitating -0.3073491156101227 -0.16934125125408173 0.17100436985492706 -0.07125138491392136 -0.2327028065919876 0.2287529557943344 0.15932194888591766 0.08710013329982758 -0.25189080834388733 -0.4133113920688629
agitation -0.5528591871261597 -0.42370137572288513 -0.05938586965203285 0.5433106422424316 -0.3336666226387024 -0.07670879364013672 0.38871678709983826 0.5200841426849365 -0.3096481263637543 0.05461167171597481
agley -0.1122475266456604 -0.29940468072891235 0.07502749562263489 0.1425115168094635 -0.2840486764907837 -0.09048599749803543 -0.10893413424491882 -0.14592525362968445 0.23992307484149933 0.4032280445098877
aglow -0.26434705033898354 -0.45440901815891266 0.2535181753337383 0.12901139445602894 0.005322448909282684 0.09477058425545692 0.04588774964213371 0.010228671133518219 0.28698075469583273 -0.050417095597367734
ago -0.6550085842609406 -0.06456499546766281 0.16725681722164154 0.1987876007333398 0.12908895500004292 -0.16007177531719208 -0.04695108067244291 -0.5136474743485451 -0.33571470342576504 -0.39931347966194153
agonized -0.014681550906971097 -0.15835607424378395 0.13833099603652954 -0.11157755553722382 -0.015833872836083174 0.04632037132978439 0.04692324995994568 0.18113122135400772 0.03940235543996096 0.09108572918921709
agonizing -0.41341662406921387 -0.3756713569164276 0.3107524812221527 0.035143595188856125 0.22648710012435913 -0.10924366861581802 0.22768178582191467 0.015821153298020363 -0.20086659491062164 -0.19773559272289276
agonizingly 0.12835028767585754 -0.15377141535282135 0.1432449370622635 0.3493732213973999 -0.5585837960243225 -0.15517495572566986 0.08074192702770233 0.6670689582824707 0.5872979164123535 0.2149534970521927
agony -0.5964022576808929 0.022128255339339375 0.09132663160562515 -0.17806151625700295 -0.11725760623812675 0.026786666363477707 0.03892506659030914 0.26690597739070654 0.3676858879625797 0.4065663020592183
agrafena -1.0216460227966309 -0.44184932112693787 0.2896023690700531 0.7476641535758972 -0.6738464832305908 0.6719182729721069 -0.11688906699419022 -0.3577512800693512 0.4503673017024994 -0.08292602002620697
agree -0.23826756328344345 0.0959344319999218 -0.6588174104690552 0.054488129913806915 -0.32248659431934357 -0.24642824940383434 -0.33844559267163277 -0.3627612963318825 -0.4691285789012909 0.1410103440284729
agreeable -0.5879359245300293 0.08966472744941711 0.28626585006713867 0.29619303345680237 -0.20946279168128967 -0.025021029636263847 -0.11424049735069275 0.023184144869446754 -0.2498960644006729 -0.16527672111988068
agreeably -0.1856466829776764 0.04482953995466232 -0.13455499708652496 0.42664551734924316 -0.022646646946668625 0.7761777639389038 0.9690285921096802 0.6059538722038269 0.12179305404424667 0.11649013310670853
agreed -0.29924242570996284 -0.06436943728476763 -0.02176704816520214 0.21127399802207947 -0.14130242448300123 -0.1742202891036868 -0.05263285245746374 -0.05283600836992264 -0.2284882254898548 -0.09463274572044611
agreeing -0.034693408757448196 0.04255523160099983 -0.04655734449625015 0.009393051266670227 0.04720689356327057 -0.02718268148601055 -0.04186243191361427 0.02721966803073883 -0.053267963230609894 -0.021689312532544136
agreement 0.11148762330412865 0.042459309101104736 0.06120417919009924 0.10391410626471043 -0.03592788055539131 -0.030653610825538635 -0.013258807361125946 0.22404072433710098 0.14130251482129097 -0.09295181930065155
agricultural -0.4848689138889313 -0.4672783613204956 0.27970409393310547 -0.12486797571182251 -0.005209611728787422 0.44888511300086975 0.06362307071685791 -0.17263130843639374 -0.09734820574522018 -0.3061014711856842
agriculture 0.028960494324564934 -0.3940292000770569 0.2852236330509186 0.09406822919845581 0.07731347531080246 -0.033335138112306595 -0.129005566239357 -0.40175309777259827 0.2861730456352234 -0.15972207486629486
agriculturists 0.026154151186347008 -0.009623420424759388 -0.023146476596593857 -0.009705075062811375 0.03011123463511467 -0.034335844218730927 -0.04038562998175621 -0.03706396743655205 -0.04752187803387642 0.005935868248343468
ague -0.15757960081100464 -0.16819500923156738 0.21156656742095947 0.09567102044820786 0.18777014315128326 0.09652504324913025 0.06667739152908325 0.1354815810918808 -0.07332437485456467 0.07491524517536163
agwee -0.0388900451362133 0.05991230905056 -0.02643570490181446 0.017656724900007248 0.0036700156051665545 0.01199139654636383 -0.017421647906303406 0.07728034257888794 -0.034340906888246536 -0.020086724311113358
ah 0.22187699005007744 0.14225450158119202 -0.48226000368595123 0.7410102188587189 -0.026973962783813477 0.019487477838993073 -0.11696656420826912 0.0957778450101614 -0.5319557785987854 -0.08429719507694244
ahahah -0.19200214743614197 -0.39029228687286377 0.10697834938764572 -0.6079050898551941 -0.4184804856777191 -0.32678934931755066 -0.5354790687561035 -0.031296223402023315 0.13910967111587524 -0.0058073801919817924
ahead 0.31207580491900444 -0.3607092723250389 0.30145193077623844 -0.04359239712357521 0.14664427563548088 -0.44208185374736786 0.39063704409636557 -0.5118633136153221 0.15809808671474457 0.08937752619385719
ahem 0.10800489783287048 -0.00463904719799757 -0.0445576086640358 -0.09071765840053558 0.4427366852760315 0.3151012063026428 0.15310683846473694 0.5071860551834106 -0.19273322820663452 -0.13934862613677979
aid -0.5642864108085632 -0.5104934573173523 -0.4178398549556732 -0.03331100195646286 -0.3762992322444916 0.9565879106521606 -0.8315396308898926 -0.272022545337677 -0.23032769560813904 0.22481130063533783
aided 0.798599123954773 -0.4146718978881836 0.231889545917511 -0.15749602019786835 -0.3718481957912445 -0.3938300609588623 -0.19016633927822113 0.5141463875770569 -0.2517581582069397 -0.22730381786823273
aids -0.14759793877601624 -0.19748719036579132 -0.11052675545215607 -0.5073102116584778 -0.19649717211723328 -0.05157480388879776 -0.04873394966125488 -0.18772701919078827 -0.22446991503238678 0.029389439150691032
ailing -0.15554144978523254 0.29230690002441406 0.2596270740032196 0.010413382202386856 0.15873700380325317 0.08326491713523865 -0.1950477510690689 0.07393572479486465 -0.17712284624576569 0.10338499397039413
aim -0.8100503087043762 -0.41139737144112587 -0.0746293943375349 -0.19717660173773766 0.309540793299675 -0.413174070417881 -0.355932854115963 -0.5471933633089066 -0.614488273859024 0.3133620247244835
aime 0.2152910828590393 -0.1626189649105072 -1.1162879467010498 -0.635829508304596 0.28757181763648987 0.5813509821891785 -0.03613382577896118 0.2009374052286148 -0.2694413363933563 -0.4405170679092407
aimed -0.15274827182292938 -1.0635907649993896 -0.013816073536872864 0.19895420968532562 -0.20033849775791168 -0.1742340326309204 0.1460428088903427 -0.009390316903591156 0.06584716588258743 -0.5146822929382324
aiming -0.22691380977630615 -0.310603529214859 0.8063770532608032 0.48295268416404724 0.6781233549118042 0.17021328210830688 0.047449562698602676 0.022456364706158638 -0.30849945545196533 -0.009584883227944374
aimless -0.016265392303466797 -0.18897561728954315 -0.06235801428556442 0.1438898742198944 -0.14891213178634644 -0.025967566296458244 -0.046063974499702454 -0.04655022919178009 -0.024251332506537437 -0.02209250070154667
aimlessly -0.14928776025772095 -0.13891315460205078 0.21914084255695343 0.2253938615322113 -0.008294718340039253 -0.1352212280035019 0.07768077403306961 0.009722776710987091 0.15617425739765167 0.01199507899582386
aims -0.6405166387557983 -0.6941462159156799 0.1744535118341446 -0.40357229113578796 -0.14027686417102814 0.2509324550628662 0.12332077324390411 -0.6634388566017151 -0.12561720609664917 0.8337463736534119
air -0.32405693270266056 -0.4347353558987379 0.22598830610513687 -0.008958742022514343 -0.339619480073452 -0.18280768394470215 0.01471826434135437 0.10766588151454926 0.13810109021142125 0.3484774976968765
airily 2.923645079135895E-4 -0.5945002436637878 -0.11627259850502014 -0.11620544642210007 0.2806796431541443 -0.18032965064048767 0.3617076277732849 -0.14204023778438568 0.10880202054977417 -0.29001739621162415
airiness -0.22083289921283722 -0.35281920433044434 0.021494781598448753 -0.053944528102874756 0.04084194079041481 0.41570550203323364 -0.04151196777820587 -0.160171240568161 -0.007431220728904009 0.2430337816476822
airs -0.29382067918777466 0.2083083838224411 0.4660606384277344 -0.2703874409198761 -0.004047312308102846 1.171331763267517 -0.00650042574852705 0.1736210733652115 -0.4037558436393738 0.4660480320453644
airy -0.2924574762582779 -0.05623721634037793 0.1719496208243072 -0.13572398200631142 -0.08208147808909416 -0.19495997950434685 0.06708183139562607 -0.17931708693504333 0.09281869232654572 0.332846038043499
ak 0.04174094647169113 -0.014265434816479683 0.014394795522093773 -0.023378467187285423 -0.027509983628988266 -0.03411627933382988 0.011001979932188988 0.05049585551023483 -0.030890051275491714 8.158697164617479E-4
akharovs -0.19101037085056305 0.5066426396369934 0.21396499872207642 0.42589008808135986 -0.12052445113658905 0.2533990442752838 0.03308211639523506 -0.28751495480537415 -0.1175416111946106 -0.31095314025878906
akhrosimova -0.2865680456161499 0.35642319917678833 0.37902477383613586 0.8558549284934998 0.04109993949532509 0.38254261016845703 0.022209810093045235 -0.21258880198001862 -0.23598875105381012 0.4035019874572754
akimbo 0.5482813715934753 -0.18367557227611542 0.4326745569705963 0.7807387113571167 -0.4585866630077362 0.40348020195961 -0.035694751888513565 0.25937771797180176 0.9699133634567261 -0.4948137700557709
akin -0.6763741970062256 -0.5098412036895752 0.003775313263759017 0.021102363243699074 0.05027787387371063 0.335796058177948 -0.14620037376880646 -0.20499970018863678 0.18779857456684113 -0.06684799492359161
akinfi -0.2211739718914032 0.11796789616346359 0.14266984164714813 0.014548779465258121 0.34933140873908997 0.24981364607810974 0.01653788983821869 0.4020199179649353 -0.38771852850914 0.16040602326393127
alarm -0.3461601138114929 -0.4629593715071678 -0.1191695099696517 0.14051239844411612 -0.21933212131261826 0.13358139712363482 -0.011425621807575226 0.3881673514842987 -0.02662818878889084 -0.33955030143260956
alarmed -0.7437827587127686 -0.058487340807914734 -0.08747139573097229 -0.3180510401725769 -0.7055416107177734 0.13962629437446594 -0.0072873858734965324 0.501284122467041 -0.2536277174949646 -0.610010027885437
alarming -0.00959908589720726 -0.22598011791706085 -0.16565896570682526 -0.15050512552261353 0.16624921560287476 0.027669621631503105 -0.02532159723341465 -0.17035838961601257 -0.06908111274242401 -0.3235591948032379
alarms -0.11221520602703094 -0.1980871558189392 0.21632274985313416 0.051595136523246765 -0.056202057749032974 -0.04572106525301933 0.05435889959335327 -0.00874399859458208 -0.09826820343732834 -0.0043871160596609116
albanians 0.09743118286132812 -0.1344446986913681 0.16871610283851624 -0.04806293174624443 0.015556972473859787 0.26705190539360046 -0.3219653367996216 0.2307972013950348 7.407593075186014E-4 0.17553600668907166
album -0.5478684902191162 -0.36173978447914124 0.18681667745113373 0.8992424011230469 0.46538007259368896 0.511798083782196 0.2911098599433899 0.3198157846927643 0.307420015335083 -0.6751195192337036
albums -0.6426631808280945 0.21977685391902924 0.46273717284202576 0.1141481101512909 -0.4278638958930969 0.8067139387130737 0.32412880659103394 0.5311453342437744 0.40026918053627014 0.04900414124131203
alcohol 0.15596355497837067 -0.27532151341438293 0.2888928949832916 -0.3413568139076233 0.4138735830783844 0.6325235366821289 0.19860981404781342 0.028114011511206627 0.4023074805736542 0.09049896895885468
alcove -0.4743190109729767 -0.14571192860603333 0.30080538988113403 -0.5259894728660583 -0.4196290075778961 0.3018694519996643 0.10807625949382782 0.5248324871063232 -0.20669284462928772 0.6846692562103271
alders 0.10019870847463608 0.006621178239583969 -0.021790429949760437 -0.1823812574148178 -0.23712171614170074 -0.06753335148096085 -0.5795197486877441 0.11762572079896927 0.16284246742725372 -0.09651052951812744
alenina 0.19534675776958466 0.049156852066516876 -0.15194065868854523 0.28214186429977417 -0.38517823815345764 0.35370856523513794 -0.36456209421157837 -0.018672533333301544 0.22549371421337128 0.21561624109745026
alert -0.10790928266942501 0.08313281834125519 0.4500190895050764 0.14386437833309174 -0.08062587305903435 -0.14147450309246778 0.14839650318026543 0.23119617253541946 0.16967851668596268 -0.021827027201652527
alertly -0.0983741357922554 -0.16291996836662292 0.20855318009853363 0.07198035717010498 -0.07952388375997543 0.029056303203105927 -0.006698135752230883 -0.12155855447053909 0.1579616218805313 0.04817022755742073
alertness -0.09069672971963882 -0.11251978576183319 -0.0351523719727993 -0.04766412451863289 -0.06937781721353531 0.04938436672091484 0.0018984911730512977 0.03521151468157768 -0.12046577036380768 0.14162790775299072
alesha -0.41984108090400696 -0.11079595983028412 0.027781512588262558 -0.13344968855381012 -0.2268955260515213 0.27460727095603943 -0.05710860714316368 -0.11688196659088135 0.0979684442281723 0.47069594264030457
alexander -0.3227269947528839 -0.13995549082756042 -0.024095505475997925 -0.27255043387413025 0.09119270741939545 -0.1663307100534439 -0.060016319155693054 -0.42756387591362 -0.9636957049369812 0.3812396228313446
alexanders -0.6804606914520264 -0.5254963040351868 0.4799805283546448 0.5124562382698059 -0.14156891405582428 -0.11311167478561401 0.45792528986930847 -0.46909597516059875 -0.4439283013343811 0.057606812566518784
alexandre 0.09093175083398819 0.2142232358455658 0.3907391428947449 0.08911042660474777 0.4566362202167511 0.6915262341499329 -0.2774549126625061 -0.5548008680343628 -0.6792731881141663 -0.13241347670555115
alexeevich 0.09844820201396942 0.21994619071483612 0.3126550018787384 0.465544193983078 -1.238293170928955 0.20504431426525116 0.5486269593238831 -0.8024521470069885 0.36265069246292114 -0.9158429503440857
alexeevna -0.014666618779301643 0.09599722921848297 -0.017610937356948853 0.039783596992492676 -0.12037042528390884 0.048503052443265915 0.08330121636390686 0.05497349798679352 0.026684047654271126 -0.07318278402090073
alexey 0.046449869871139526 -0.08343485742807388 0.021215375512838364 -0.0048176441341638565 -0.1873224377632141 -0.12284586578607559 0.15580418705940247 -0.0884302631020546 -0.1675419956445694 0.0015819603577256203
alexis -0.23538173735141754 0.1964423805475235 -0.05877000838518143 0.026157544925808907 0.05690915137529373 0.10219170898199081 -0.13152487576007843 0.2053125500679016 0.05191387981176376 0.02309088595211506
algebra 0.17733240127563477 0.07972636539489031 -0.18092243373394012 0.3261343017220497 0.10636835545301437 0.1778697595000267 0.14145196229219437 0.08487623929977417 0.28855636715888977 0.2494048774242401
algebraic 0.2312396764755249 -0.0840732529759407 -0.027774129062891006 0.055238448083400726 0.561453104019165 0.5405722260475159 0.7192401885986328 0.3790982961654663 -0.5010398626327515 0.5559074282646179
alien -0.7284497618675232 -0.426447331905365 -0.23898489773273468 0.016506025567650795 -0.20474663376808167 0.02239811047911644 -0.026272984221577644 -0.07429280877113342 0.20742279291152954 -0.31883174180984497
alienated -0.30232444405555725 0.008190453983843327 -0.11646728962659836 0.19725584983825684 -0.21572056412696838 0.2181607037782669 0.2683011293411255 0.06077420338988304 0.10510214418172836 -0.39841070771217346
alienating -0.17193976044654846 0.137745663523674 -0.0031636981293559074 0.2194468230009079 -0.028423182666301727 -0.21829578280448914 -0.29590538144111633 0.11810015887022018 -0.3915010392665863 0.36239999532699585
alight -0.21098551154136658 0.04458130523562431 0.07443691045045853 0.35654953122138977 -0.670408308506012 0.09966232627630234 0.3150433301925659 0.4923973083496094 0.7680118083953857 -0.12412254512310028
alighted 0.15746945142745972 -0.22509904205799103 0.6462392807006836 0.5376572608947754 0.200750470161438 0.19062401354312897 0.3246375620365143 0.10767514258623123 0.4202694892883301 -0.04930679500102997
alighting 0.3317137658596039 -0.6413592100143433 0.508007824420929 0.04034464806318283 0.05223211273550987 0.0795552060008049 -0.07165411114692688 -0.15587261319160461 0.18394045531749725 0.16829845309257507
aligning 0.14843223989009857 -0.6522651314735413 -0.12257862091064453 0.27755534648895264 -0.0813373401761055 -0.703832745552063 0.36930495500564575 0.5993669629096985 0.5418210029602051 0.6314871311187744
alike -0.43446504324674606 -0.04599209502339363 0.21594560146331787 -0.08259403333067894 -0.2630915530025959 0.05969802848994732 0.16693086549639702 -0.3851782828569412 0.10434498637914658 0.08673045039176941
aliment -0.09065049886703491 0.1457764059305191 -0.4806775450706482 -0.15849639475345612 0.30795955657958984 0.5282958745956421 0.21259723603725433 -0.3726397156715393 -0.15501682460308075 0.018039047718048096
alimony -0.06914438307285309 -0.19706323742866516 0.0834110900759697 -0.11313828825950623 -0.14950968325138092 0.6922591328620911 -0.1461968868970871 -0.12718039751052856 -0.1166788786649704 -0.31044280529022217
aline -0.08868889510631561 0.16454993188381195 -0.09334054589271545 0.07261834293603897 -0.12665843963623047 0.4401196241378784 -0.5272040963172913 0.17694368958473206 0.3376792073249817 0.024838250130414963
alive -0.42730970680713654 -0.4160747490823269 -0.4479108452796936 -0.04075251519680023 -0.3575417101383209 -0.6001776903867722 -0.03930122219026089 0.00401637889444828 -0.1844304259866476 -0.2681148499250412
all -0.24842866824474186 -0.1273159310221672 -0.07910493016242981 0.2966082766652107 -0.0771446730941534 0.1694740373714012 -0.1207440122961998 -0.04872162640094757 -0.20169795025140047 0.18916739616543055
allay -0.48299258947372437 0.44750121235847473 0.1184917539358139 -0.4267440140247345 -0.5919973850250244 0.08443021774291992 -0.23953215777873993 -0.35611656308174133 0.4400070309638977 -0.11276180297136307
allcrs -0.5276907682418823 -0.05290713906288147 -0.41803687810897827 -0.04430398717522621 0.3004727363586426 -0.5245271921157837 -0.14052513241767883 0.17029741406440735 0.0033029066398739815 -0.3665676712989807
alleged -0.6578294038772583 -0.6733964681625366 0.7485760450363159 0.22636669874191284 0.06921305507421494 -0.20931145548820496 0.5300499796867371 0.03307946026325226 -0.5359469056129456 -0.2686210572719574
allegiance 0.0015384844737127423 0.01365623902529478 -0.07033552974462509 -0.026394909247756004 -0.06379468739032745 -9.499710286036134E-4 -0.018119314685463905 0.06755520403385162 -0.046071767807006836 0.053330011665821075
allegories -0.1712804138660431 -0.1975121796131134 -0.03514338657259941 -0.37448158860206604 -0.09290029853582382 0.47248712182044983 0.23305518925189972 -0.0946110412478447 0.19552570581436157 0.10541850328445435
allegory -0.09521175414556637 -0.14498627930879593 0.12340105324983597 -0.0638341223821044 -0.09997147973626852 -0.17813169956207275 0.030329505214467645 0.10933322831988335 0.05943527817726135 0.0433338382281363
allers -0.5380633473396301 0.8032621741294861 -1.0739376544952393 -0.3522939383983612 -0.6841030716896057 -0.8544305562973022 0.41419047117233276 0.8966912627220154 -0.7410486936569214 -0.7397846579551697
alleviate -0.1750013828277588 0.13388685882091522 0.11453278362751007 -0.4025742709636688 -0.12929247319698334 -0.06086135655641556 -0.40740594267845154 -0.32483991980552673 0.470804899930954 0.17391841113567352
alley 0.7279943823814392 0.04535551369190216 0.0774618536233902 -0.0028443168848752975 0.05409711226820946 0.7741561532020569 -0.29023244976997375 0.41614505648612976 0.056170545518398285 0.0592382475733757
alleys 0.06079687923192978 -0.48193371295928955 0.21019186079502106 0.14429733157157898 -0.270244300365448 -8.210951928049326E-4 0.07721616327762604 -0.2591491937637329 0.2097501903772354 -0.043441761285066605
alliance -0.10028233379125595 -0.0320957712829113 0.5258369445800781 0.07620741426944733 0.09245718270540237 1.0308293104171753 -0.3516702950000763 -0.4684799015522003 -0.7348483800888062 0.7477136254310608
alliances -0.44895580410957336 -0.5014020204544067 -0.7240831255912781 -0.00958890002220869 0.468557745218277 0.7772639393806458 0.05279960483312607 0.0975162535905838 0.6108488440513611 0.9505413770675659
allied 0.22622953355312347 0.30590105056762695 1.4140105247497559 -0.7858285307884216 0.7779797315597534 -0.5831071734428406 -0.03634047508239746 -0.5845709443092346 -0.22616465389728546 0.9357472658157349
alliee -0.3486652672290802 -0.09551796317100525 -0.5133681893348694 -0.7798829078674316 0.7408618330955505 0.8796960115432739 0.17603164911270142 0.10195795446634293 -0.1378791630268097 0.29615265130996704
